<?xml version="1.0"?>
<opencv_storage>
<cascade>
  <stageType>BOOST</stageType>
  <featureType>HAAR</featureType>
  <height>24</height>
  <width>32</width>
  <stageParams>
    <boostType>GAB</boostType>
    <minHitRate>9.9500000476837158e-01</minHitRate>
    <maxFalseAlarm>5.0000000000000000e-01</maxFalseAlarm>
    <weightTrimRate>9.4999998807907104e-01</weightTrimRate>
    <maxDepth>1</maxDepth>
    <maxWeakCount>100</maxWeakCount></stageParams>
  <featureParams>
    <maxCatCount>0</maxCatCount>
    <featSize>1</featSize>
    <mode>BASIC</mode></featureParams>
  <stageNum>6</stageNum>
  <stages>
    <!-- stage 0 -->
    <_>
      <maxWeakCount>2</maxWeakCount>
      <stageThreshold>-2.6955956220626831e-01</stageThreshold>
      <weakClassifiers>
        <_>
          <internalNodes>
            0 -1 2 2.8830468654632568e-01</internalNodes>
          <leafValues>
            -9.9799197912216187e-01 8.7012988328933716e-01</leafValues></_>
        <_>
          <internalNodes>
            0 -1 6 3.2761332392692566e-01</internalNodes>
          <leafValues>
            -9.9329763650894165e-01 7.2843241691589355e-01</leafValues></_></weakClassifiers></_>
    <!-- stage 1 -->
    <_>
      <maxWeakCount>3</maxWeakCount>
      <stageThreshold>-1.2740620374679565e+00</stageThreshold>
      <weakClassifiers>
        <_>
          <internalNodes>
            0 -1 7 1.9284850358963013e-01</internalNodes>
          <leafValues>
            -9.8400002717971802e-01 7.8082191944122314e-01</leafValues></_>
        <_>
          <internalNodes>
            0 -1 11 -1.7342768609523773e-02</internalNodes>
          <leafValues>
            6.9262379407882690e-01 -9.4880652427673340e-01</leafValues></_>
        <_>
          <internalNodes>
            0 -1 5 1.6035215556621552e-01</internalNodes>
          <leafValues>
            -9.8268580436706543e-01 6.6267418861389160e-01</leafValues></_></weakClassifiers></_>
    <!-- stage 2 -->
    <_>
      <maxWeakCount>3</maxWeakCount>
      <stageThreshold>-1.6265380382537842e+00</stageThreshold>
      <weakClassifiers>
        <_>
          <internalNodes>
            0 -1 1 1.4305718243122101e-01</internalNodes>
          <leafValues>
            -9.8567044734954834e-01 3.7500000000000000e-01</leafValues></_>
        <_>
          <internalNodes>
            0 -1 0 2.2654983401298523e-01</internalNodes>
          <leafValues>
            -9.7843307256698608e-01 2.8071618080139160e-01</leafValues></_>
        <_>
          <internalNodes>
            0 -1 15 1.2640094384551048e-02</internalNodes>
          <leafValues>
            -9.2158383131027222e-01 6.9063693284988403e-01</leafValues></_></weakClassifiers></_>
    <!-- stage 3 -->
    <_>
      <maxWeakCount>3</maxWeakCount>
      <stageThreshold>-1.4050495624542236e+00</stageThreshold>
      <weakClassifiers>
        <_>
          <internalNodes>
            0 -1 9 1.6409065574407578e-02</internalNodes>
          <leafValues>
            -9.4076997041702271e-01 4.3333333730697632e-01</leafValues></_>
        <_>
          <internalNodes>
            0 -1 14 -3.7569638341665268e-02</internalNodes>
          <leafValues>
            4.3741589784622192e-01 -9.5258045196533203e-01</leafValues></_>
        <_>
          <internalNodes>
            0 -1 12 7.0025282911956310e-03</internalNodes>
          <leafValues>
            4.9858951568603516e-01 -9.0169548988342285e-01</leafValues></_></weakClassifiers></_>
    <!-- stage 4 -->
    <_>
      <maxWeakCount>3</maxWeakCount>
      <stageThreshold>-1.2673220634460449e+00</stageThreshold>
      <weakClassifiers>
        <_>
          <internalNodes>
            0 -1 8 3.0667254701256752e-02</internalNodes>
          <leafValues>
            -9.5233368873596191e-01 4.8484849929809570e-01</leafValues></_>
        <_>
          <internalNodes>
            0 -1 10 1.2872558087110519e-02</internalNodes>
          <leafValues>
            -8.2176584005355835e-01 9.5700019598007202e-01</leafValues></_>
        <_>
          <internalNodes>
            0 -1 13 3.0510872602462769e-02</internalNodes>
          <leafValues>
            -9.3040466308593750e-01 6.0825771093368530e-01</leafValues></_></weakClassifiers></_>
    <!-- stage 5 -->
    <_>
      <maxWeakCount>3</maxWeakCount>
      <stageThreshold>-1.1274218559265137e+00</stageThreshold>
      <weakClassifiers>
        <_>
          <internalNodes>
            0 -1 3 4.1846776008605957e-01</internalNodes>
          <leafValues>
            -9.7044336795806885e-01 1.</leafValues></_>
        <_>
          <internalNodes>
            0 -1 16 2.5877025909721851e-03</internalNodes>
          <leafValues>
            -9.7208249568939209e-01 6.9965463876724243e-01</leafValues></_>
        <_>
          <internalNodes>
            0 -1 4 -8.2405153661966324e-03</internalNodes>
          <leafValues>
            8.6673784255981445e-01 -8.5663318634033203e-01</leafValues></_></weakClassifiers></_></stages>
  <features>
    <_>
      <rects>
        <_>
          0 4 16 14 -1.</_>
        <_>
          8 4 8 14 2.</_></rects>
      <tilted>0</tilted></_>
    <_>
      <rects>
        <_>
          1 3 30 4 -1.</_>
        <_>
          11 3 10 4 3.</_></rects>
      <tilted>0</tilted></_>
    <_>
      <rects>
        <_>
          1 14 30 7 -1.</_>
        <_>
          11 14 10 7 3.</_></rects>
      <tilted>0</tilted></_>
    <_>
      <rects>
        <_>
          2 13 30 9 -1.</_>
        <_>
          12 13 10 9 3.</_></rects>
      <tilted>0</tilted></_>
    <_>
      <rects>
        <_>
          3 10 4 6 -1.</_>
        <_>
          3 12 4 2 3.</_></rects>
      <tilted>0</tilted></_>
    <_>
      <rects>
        <_>
          4 0 18 18 -1.</_>
        <_>
          4 6 18 6 3.</_></rects>
      <tilted>0</tilted></_>
    <_>
      <rects>
        <_>
          4 13 27 10 -1.</_>
        <_>
          13 13 9 10 3.</_></rects>
      <tilted>0</tilted></_>
    <_>
      <rects>
        <_>
          5 1 22 15 -1.</_>
        <_>
          5 6 22 5 3.</_></rects>
      <tilted>0</tilted></_>
    <_>
      <rects>
        <_>
          5 5 3 9 -1.</_>
        <_>
          5 8 3 3 3.</_></rects>
      <tilted>0</tilted></_>
    <_>
      <rects>
        <_>
          5 7 3 6 -1.</_>
        <_>
          5 9 3 2 3.</_></rects>
      <tilted>0</tilted></_>
    <_>
      <rects>
        <_>
          5 8 2 6 -1.</_>
        <_>
          5 10 2 2 3.</_></rects>
      <tilted>0</tilted></_>
    <_>
      <rects>
        <_>
          9 22 18 2 -1.</_>
        <_>
          9 23 18 1 2.</_></rects>
      <tilted>0</tilted></_>
    <_>
      <rects>
        <_>
          11 13 12 9 -1.</_>
        <_>
          15 13 4 9 3.</_></rects>
      <tilted>0</tilted></_>
    <_>
      <rects>
        <_>
          15 0 11 6 -1.</_>
        <_>
          15 3 11 3 2.</_></rects>
      <tilted>0</tilted></_>
    <_>
      <rects>
        <_>
          22 7 10 4 -1.</_>
        <_>
          27 7 5 4 2.</_></rects>
      <tilted>0</tilted></_>
    <_>
      <rects>
        <_>
          23 6 6 4 -1.</_>
        <_>
          23 8 6 2 2.</_></rects>
      <tilted>0</tilted></_>
    <_>
      <rects>
        <_>
          24 9 6 2 -1.</_>
        <_>
          24 10 6 1 2.</_></rects>
      <tilted>0</tilted></_></features></cascade>
</opencv_storage>
