<?xml version="1.0"?>
<opencv_storage>
<cascade>
  <stageType>BOOST</stageType>
  <featureType>HAAR</featureType>
  <height>24</height>
  <width>18</width>
  <stageParams>
    <boostType>GAB</boostType>
    <minHitRate>9.9500000476837158e-01</minHitRate>
    <maxFalseAlarm>5.0000000000000000e-01</maxFalseAlarm>
    <weightTrimRate>9.4999998807907104e-01</weightTrimRate>
    <maxDepth>1</maxDepth>
    <maxWeakCount>100</maxWeakCount></stageParams>
  <featureParams>
    <maxCatCount>0</maxCatCount>
    <featSize>1</featSize>
    <mode>BASIC</mode></featureParams>
  <stageNum>9</stageNum>
  <stages>
    <!-- stage 0 -->
    <_>
      <maxWeakCount>3</maxWeakCount>
      <stageThreshold>-1.4095975160598755e+00</stageThreshold>
      <weakClassifiers>
        <_>
          <internalNodes>
            0 -1 24 9.2196643352508545e-02</internalNodes>
          <leafValues>
            -9.7621405124664307e-01 9.3406593799591064e-01</leafValues></_>
        <_>
          <internalNodes>
            0 -1 19 7.8620068728923798e-02</internalNodes>
          <leafValues>
            -9.5475077629089355e-01 6.1184626817703247e-01</leafValues></_>
        <_>
          <internalNodes>
            0 -1 6 -6.7507550120353699e-03</internalNodes>
          <leafValues>
            5.2136731147766113e-01 -9.9437481164932251e-01</leafValues></_></weakClassifiers></_>
    <!-- stage 1 -->
    <_>
      <maxWeakCount>2</maxWeakCount>
      <stageThreshold>-1.4044928550720215e-01</stageThreshold>
      <weakClassifiers>
        <_>
          <internalNodes>
            0 -1 16 -6.9227725267410278e-02</internalNodes>
          <leafValues>
            9.7701150178909302e-01 -9.7235929965972900e-01</leafValues></_>
        <_>
          <internalNodes>
            0 -1 14 2.1990923210978508e-02</internalNodes>
          <leafValues>
            -9.1920393705368042e-01 8.3191007375717163e-01</leafValues></_></weakClassifiers></_>
    <!-- stage 2 -->
    <_>
      <maxWeakCount>3</maxWeakCount>
      <stageThreshold>-1.1131408214569092e+00</stageThreshold>
      <weakClassifiers>
        <_>
          <internalNodes>
            0 -1 9 1.2838464975357056e-01</internalNodes>
          <leafValues>
            -9.2038834095001221e-01 6.8571430444717407e-01</leafValues></_>
        <_>
          <internalNodes>
            0 -1 12 -2.6380208134651184e-01</internalNodes>
          <leafValues>
            8.5694837570190430e-01 -8.0284941196441650e-01</leafValues></_>
        <_>
          <internalNodes>
            0 -1 2 3.6575136618921533e-05</internalNodes>
          <leafValues>
            -9.5615184307098389e-01 6.1009687185287476e-01</leafValues></_></weakClassifiers></_>
    <!-- stage 3 -->
    <_>
      <maxWeakCount>3</maxWeakCount>
      <stageThreshold>-1.3783801794052124e+00</stageThreshold>
      <weakClassifiers>
        <_>
          <internalNodes>
            0 -1 8 1.1685077846050262e-01</internalNodes>
          <leafValues>
            -9.2687749862670898e-01 4.3181818723678589e-01</leafValues></_>
        <_>
          <internalNodes>
            0 -1 26 2.3150086402893066e-02</internalNodes>
          <leafValues>
            -8.4548652172088623e-01 4.8173820972442627e-01</leafValues></_>
        <_>
          <internalNodes>
            0 -1 18 -3.5149489121977240e-05</internalNodes>
          <leafValues>
            3.9398381114006042e-01 -1.</leafValues></_></weakClassifiers></_>
    <!-- stage 4 -->
    <_>
      <maxWeakCount>3</maxWeakCount>
      <stageThreshold>-1.2688859701156616e+00</stageThreshold>
      <weakClassifiers>
        <_>
          <internalNodes>
            0 -1 3 1.2483840435743332e-01</internalNodes>
          <leafValues>
            -9.4274431467056274e-01 6.3218390941619873e-01</leafValues></_>
        <_>
          <internalNodes>
            0 -1 20 2.1581888198852539e-02</internalNodes>
          <leafValues>
            -8.5740220546722412e-01 7.2026538848876953e-01</leafValues></_>
        <_>
          <internalNodes>
            0 -1 17 -7.8236553817987442e-03</internalNodes>
          <leafValues>
            5.3126060962677002e-01 -8.3450168371200562e-01</leafValues></_></weakClassifiers></_>
    <!-- stage 5 -->
    <_>
      <maxWeakCount>3</maxWeakCount>
      <stageThreshold>-1.2769572734832764e+00</stageThreshold>
      <weakClassifiers>
        <_>
          <internalNodes>
            0 -1 13 -1.1323064565658569e-01</internalNodes>
          <leafValues>
            7.7777779102325439e-01 -9.1513985395431519e-01</leafValues></_>
        <_>
          <internalNodes>
            0 -1 15 -2.5552752614021301e-01</internalNodes>
          <leafValues>
            7.3225599527359009e-01 -8.1710302829742432e-01</leafValues></_>
        <_>
          <internalNodes>
            0 -1 22 1.0128505527973175e-01</internalNodes>
          <leafValues>
            -9.5434850454330444e-01 4.5528554916381836e-01</leafValues></_></weakClassifiers></_>
    <!-- stage 6 -->
    <_>
      <maxWeakCount>3</maxWeakCount>
      <stageThreshold>-1.2719124555587769e+00</stageThreshold>
      <weakClassifiers>
        <_>
          <internalNodes>
            0 -1 7 -4.0024649351835251e-02</internalNodes>
          <leafValues>
            1. -9.0294957160949707e-01</leafValues></_>
        <_>
          <internalNodes>
            0 -1 21 2.4040155112743378e-02</internalNodes>
          <leafValues>
            -7.7784460783004761e-01 7.5774365663528442e-01</leafValues></_>
        <_>
          <internalNodes>
            0 -1 25 -1.4630642544943839e-04</internalNodes>
          <leafValues>
            4.0888172388076782e-01 -1.</leafValues></_></weakClassifiers></_>
    <!-- stage 7 -->
    <_>
      <maxWeakCount>3</maxWeakCount>
      <stageThreshold>-1.3322740793228149e+00</stageThreshold>
      <weakClassifiers>
        <_>
          <internalNodes>
            0 -1 10 3.3385761082172394e-02</internalNodes>
          <leafValues>
            -9.3737769126892090e-01 7.4358975887298584e-01</leafValues></_>
        <_>
          <internalNodes>
            0 -1 11 -1.3733357191085815e-01</internalNodes>
          <leafValues>
            1. -8.0914688110351563e-01</leafValues></_>
        <_>
          <internalNodes>
            0 -1 4 -1.4729114249348640e-02</internalNodes>
          <leafValues>
            4.1425052285194397e-01 -1.</leafValues></_></weakClassifiers></_>
    <!-- stage 8 -->
    <_>
      <maxWeakCount>4</maxWeakCount>
      <stageThreshold>-1.8560820817947388e+00</stageThreshold>
      <weakClassifiers>
        <_>
          <internalNodes>
            0 -1 23 3.6461789160966873e-02</internalNodes>
          <leafValues>
            -9.5694714784622192e-01 1.</leafValues></_>
        <_>
          <internalNodes>
            0 -1 0 4.8547290265560150e-02</internalNodes>
          <leafValues>
            -8.6363852024078369e-01 1.</leafValues></_>
        <_>
          <internalNodes>
            0 -1 1 5.6687765754759312e-03</internalNodes>
          <leafValues>
            -7.8192603588104248e-01 9.2151814699172974e-01</leafValues></_>
        <_>
          <internalNodes>
            0 -1 5 -1.8083228496834636e-04</internalNodes>
          <leafValues>
            7.4642962217330933e-01 -8.0996745824813843e-01</leafValues></_></weakClassifiers></_></stages>
  <features>
    <_>
      <rects>
        <_>
          0 0 10 8 -1.</_>
        <_>
          0 0 5 4 2.</_>
        <_>
          5 4 5 4 2.</_></rects>
      <tilted>0</tilted></_>
    <_>
      <rects>
        <_>
          0 3 13 3 -1.</_>
        <_>
          0 4 13 1 3.</_></rects>
      <tilted>0</tilted></_>
    <_>
      <rects>
        <_>
          0 4 1 2 -1.</_>
        <_>
          0 5 1 1 2.</_></rects>
      <tilted>0</tilted></_>
    <_>
      <rects>
        <_>
          0 6 6 15 -1.</_>
        <_>
          3 6 3 15 2.</_></rects>
      <tilted>0</tilted></_>
    <_>
      <rects>
        <_>
          0 7 3 16 -1.</_>
        <_>
          0 15 3 8 2.</_></rects>
      <tilted>0</tilted></_>
    <_>
      <rects>
        <_>
          0 8 2 2 -1.</_>
        <_>
          0 9 2 1 2.</_></rects>
      <tilted>0</tilted></_>
    <_>
      <rects>
        <_>
          0 9 13 2 -1.</_>
        <_>
          0 10 13 1 2.</_></rects>
      <tilted>0</tilted></_>
    <_>
      <rects>
        <_>
          1 5 10 4 -1.</_>
        <_>
          1 5 5 2 2.</_>
        <_>
          6 7 5 2 2.</_></rects>
      <tilted>0</tilted></_>
    <_>
      <rects>
        <_>
          1 6 6 15 -1.</_>
        <_>
          3 6 2 15 3.</_></rects>
      <tilted>0</tilted></_>
    <_>
      <rects>
        <_>
          2 5 6 14 -1.</_>
        <_>
          4 5 2 14 3.</_></rects>
      <tilted>0</tilted></_>
    <_>
      <rects>
        <_>
          2 7 6 4 -1.</_>
        <_>
          4 7 2 4 3.</_></rects>
      <tilted>0</tilted></_>
    <_>
      <rects>
        <_>
          3 6 9 6 -1.</_>
        <_>
          6 6 3 6 3.</_></rects>
      <tilted>0</tilted></_>
    <_>
      <rects>
        <_>
          3 6 9 13 -1.</_>
        <_>
          6 6 3 13 3.</_></rects>
      <tilted>0</tilted></_>
    <_>
      <rects>
        <_>
          3 7 9 5 -1.</_>
        <_>
          6 7 3 5 3.</_></rects>
      <tilted>0</tilted></_>
    <_>
      <rects>
        <_>
          4 6 12 1 -1.</_>
        <_>
          8 6 4 1 3.</_></rects>
      <tilted>0</tilted></_>
    <_>
      <rects>
        <_>
          4 7 9 13 -1.</_>
        <_>
          7 7 3 13 3.</_></rects>
      <tilted>0</tilted></_>
    <_>
      <rects>
        <_>
          4 8 9 5 -1.</_>
        <_>
          7 8 3 5 3.</_></rects>
      <tilted>0</tilted></_>
    <_>
      <rects>
        <_>
          5 20 3 4 -1.</_>
        <_>
          5 22 3 2 2.</_></rects>
      <tilted>0</tilted></_>
    <_>
      <rects>
        <_>
          6 10 1 2 -1.</_>
        <_>
          6 11 1 1 2.</_></rects>
      <tilted>0</tilted></_>
    <_>
      <rects>
        <_>
          7 0 4 12 -1.</_>
        <_>
          7 4 4 4 3.</_></rects>
      <tilted>0</tilted></_>
    <_>
      <rects>
        <_>
          8 3 4 6 -1.</_>
        <_>
          8 3 2 3 2.</_>
        <_>
          10 6 2 3 2.</_></rects>
      <tilted>0</tilted></_>
    <_>
      <rects>
        <_>
          8 17 6 3 -1.</_>
        <_>
          10 17 2 3 3.</_></rects>
      <tilted>0</tilted></_>
    <_>
      <rects>
        <_>
          9 0 7 18 -1.</_>
        <_>
          9 6 7 6 3.</_></rects>
      <tilted>0</tilted></_>
    <_>
      <rects>
        <_>
          9 6 6 4 -1.</_>
        <_>
          11 6 2 4 3.</_></rects>
      <tilted>0</tilted></_>
    <_>
      <rects>
        <_>
          9 7 6 13 -1.</_>
        <_>
          11 7 2 13 3.</_></rects>
      <tilted>0</tilted></_>
    <_>
      <rects>
        <_>
          11 15 7 4 -1.</_>
        <_>
          11 17 7 2 2.</_></rects>
      <tilted>0</tilted></_>
    <_>
      <rects>
        <_>
          12 0 1 10 -1.</_>
        <_>
          12 5 1 5 2.</_></rects>
      <tilted>0</tilted></_></features></cascade>
</opencv_storage>
