<?xml version="1.0"?>
<opencv_storage>
<cascade>
  <stageType>BOOST</stageType>
  <featureType>HAAR</featureType>
  <height>24</height>
  <width>18</width>
  <stageParams>
    <boostType>GAB</boostType>
    <minHitRate>9.9500000476837158e-01</minHitRate>
    <maxFalseAlarm>5.0000000000000000e-01</maxFalseAlarm>
    <weightTrimRate>9.4999998807907104e-01</weightTrimRate>
    <maxDepth>1</maxDepth>
    <maxWeakCount>100</maxWeakCount></stageParams>
  <featureParams>
    <maxCatCount>0</maxCatCount>
    <featSize>1</featSize>
    <mode>BASIC</mode></featureParams>
  <stageNum>11</stageNum>
  <stages>
    <!-- stage 0 -->
    <_>
      <maxWeakCount>3</maxWeakCount>
      <stageThreshold>-1.3458815813064575e+00</stageThreshold>
      <weakClassifiers>
        <_>
          <internalNodes>
            0 -1 20 1.0527661442756653e-01</internalNodes>
          <leafValues>
            -9.6381908655166626e-01 5.6190478801727295e-01</leafValues></_>
        <_>
          <internalNodes>
            0 -1 21 -9.5141664147377014e-02</internalNodes>
          <leafValues>
            5.8805710077285767e-01 -9.4670534133911133e-01</leafValues></_>
        <_>
          <internalNodes>
            0 -1 14 1.8056960776448250e-02</internalNodes>
          <leafValues>
            -9.8891633749008179e-01 5.6464290618896484e-01</leafValues></_></weakClassifiers></_>
    <!-- stage 1 -->
    <_>
      <maxWeakCount>3</maxWeakCount>
      <stageThreshold>-1.4763939380645752e+00</stageThreshold>
      <weakClassifiers>
        <_>
          <internalNodes>
            0 -1 10 -6.8482704460620880e-02</internalNodes>
          <leafValues>
            4.5736435055732727e-01 -9.8764163255691528e-01</leafValues></_>
        <_>
          <internalNodes>
            0 -1 27 1.1604829877614975e-01</internalNodes>
          <leafValues>
            -9.5703637599945068e-01 3.4239467978477478e-01</leafValues></_>
        <_>
          <internalNodes>
            0 -1 25 2.3259978741407394e-02</internalNodes>
          <leafValues>
            -9.9466282129287720e-01 4.6828401088714600e-01</leafValues></_></weakClassifiers></_>
    <!-- stage 2 -->
    <_>
      <maxWeakCount>2</maxWeakCount>
      <stageThreshold>-8.2301253080368042e-01</stageThreshold>
      <weakClassifiers>
        <_>
          <internalNodes>
            0 -1 12 5.5478775501251221e-01</internalNodes>
          <leafValues>
            -9.7676873207092285e-01 1.6339869797229767e-01</leafValues></_>
        <_>
          <internalNodes>
            0 -1 16 -1.6710252384655178e-04</internalNodes>
          <leafValues>
            2.9753866791725159e-01 -9.8641121387481689e-01</leafValues></_></weakClassifiers></_>
    <!-- stage 3 -->
    <_>
      <maxWeakCount>2</maxWeakCount>
      <stageThreshold>-1.0192929506301880e+00</stageThreshold>
      <weakClassifiers>
        <_>
          <internalNodes>
            0 -1 5 2.1174814552068710e-02</internalNodes>
          <leafValues>
            -9.5304161310195923e-01 -4.2944785207509995e-02</leafValues></_>
        <_>
          <internalNodes>
            0 -1 23 1.0052775964140892e-02</internalNodes>
          <leafValues>
            -9.7634816169738770e-01 2.2307804226875305e-01</leafValues></_></weakClassifiers></_>
    <!-- stage 4 -->
    <_>
      <maxWeakCount>3</maxWeakCount>
      <stageThreshold>-1.5258154869079590e+00</stageThreshold>
      <weakClassifiers>
        <_>
          <internalNodes>
            0 -1 15 7.0499077439308167e-02</internalNodes>
          <leafValues>
            -9.0891474485397339e-01 5.5882352590560913e-01</leafValues></_>
        <_>
          <internalNodes>
            0 -1 28 5.4502415878232569e-05</internalNodes>
          <leafValues>
            -9.2001336812973022e-01 3.0528005957603455e-01</leafValues></_>
        <_>
          <internalNodes>
            0 -1 6 1.0617277584969997e-03</internalNodes>
          <leafValues>
            3.9252024888992310e-01 -9.2218083143234253e-01</leafValues></_></weakClassifiers></_>
    <!-- stage 5 -->
    <_>
      <maxWeakCount>3</maxWeakCount>
      <stageThreshold>-1.4974199533462524e+00</stageThreshold>
      <weakClassifiers>
        <_>
          <internalNodes>
            0 -1 19 -6.1302788555622101e-02</internalNodes>
          <leafValues>
            2.9411765933036804e-01 -8.9147287607192993e-01</leafValues></_>
        <_>
          <internalNodes>
            0 -1 2 1.9729930907487869e-02</internalNodes>
          <leafValues>
            -9.6993464231491089e-01 1.8621550500392914e-01</leafValues></_>
        <_>
          <internalNodes>
            0 -1 17 -4.6912293328205124e-05</internalNodes>
          <leafValues>
            3.6398753523826599e-01 -9.9343103170394897e-01</leafValues></_></weakClassifiers></_>
    <!-- stage 6 -->
    <_>
      <maxWeakCount>3</maxWeakCount>
      <stageThreshold>-1.6156744956970215e+00</stageThreshold>
      <weakClassifiers>
        <_>
          <internalNodes>
            0 -1 4 7.4784845113754272e-02</internalNodes>
          <leafValues>
            -9.8370200395584106e-01 -2.2821576893329620e-01</leafValues></_>
        <_>
          <internalNodes>
            0 -1 11 4.2502232827246189e-03</internalNodes>
          <leafValues>
            -9.5990318059921265e-01 6.3595518469810486e-02</leafValues></_>
        <_>
          <internalNodes>
            0 -1 17 -2.2433171398006380e-04</internalNodes>
          <leafValues>
            -9.6069568395614624e-01 3.2793062925338745e-01</leafValues></_></weakClassifiers></_>
    <!-- stage 7 -->
    <_>
      <maxWeakCount>3</maxWeakCount>
      <stageThreshold>-1.5615539550781250e+00</stageThreshold>
      <weakClassifiers>
        <_>
          <internalNodes>
            0 -1 0 9.1599738225340843e-03</internalNodes>
          <leafValues>
            -9.0262901782989502e-01 3.6986300349235535e-01</leafValues></_>
        <_>
          <internalNodes>
            0 -1 9 -6.6424503922462463e-02</internalNodes>
          <leafValues>
            3.1469908356666565e-01 -9.2548811435699463e-01</leafValues></_>
        <_>
          <internalNodes>
            0 -1 22 -3.4638936631381512e-04</internalNodes>
          <leafValues>
            3.1953397393226624e-01 -9.7362405061721802e-01</leafValues></_></weakClassifiers></_>
    <!-- stage 8 -->
    <_>
      <maxWeakCount>5</maxWeakCount>
      <stageThreshold>-1.8197238445281982e+00</stageThreshold>
      <weakClassifiers>
        <_>
          <internalNodes>
            0 -1 30 1.2375002726912498e-02</internalNodes>
          <leafValues>
            -8.6915886402130127e-01 1.</leafValues></_>
        <_>
          <internalNodes>
            0 -1 1 -2.5406372151337564e-04</internalNodes>
          <leafValues>
            3.9656031131744385e-01 -8.6362731456756592e-01</leafValues></_>
        <_>
          <internalNodes>
            0 -1 13 4.0661133825778961e-03</internalNodes>
          <leafValues>
            -9.3953448534011841e-01 4.5353925228118896e-01</leafValues></_>
        <_>
          <internalNodes>
            0 -1 18 -1.1626719497144222e-03</internalNodes>
          <leafValues>
            3.7839677929878235e-01 -9.8222011327743530e-01</leafValues></_>
        <_>
          <internalNodes>
            0 -1 26 -4.5208176015876234e-04</internalNodes>
          <leafValues>
            5.3049397468566895e-01 -8.1844443082809448e-01</leafValues></_></weakClassifiers></_>
    <!-- stage 9 -->
    <_>
      <maxWeakCount>3</maxWeakCount>
      <stageThreshold>-1.3667250871658325e+00</stageThreshold>
      <weakClassifiers>
        <_>
          <internalNodes>
            0 -1 7 1.6480725258588791e-02</internalNodes>
          <leafValues>
            -9.0839695930480957e-01 1.</leafValues></_>
        <_>
          <internalNodes>
            0 -1 1 -4.6565823140554130e-05</internalNodes>
          <leafValues>
            3.8716280460357666e-01 -8.8335633277893066e-01</leafValues></_>
        <_>
          <internalNodes>
            0 -1 29 9.2178517661523074e-05</internalNodes>
          <leafValues>
            -8.4549093246459961e-01 5.3877431154251099e-01</leafValues></_></weakClassifiers></_>
    <!-- stage 10 -->
    <_>
      <maxWeakCount>3</maxWeakCount>
      <stageThreshold>-8.9488410949707031e-01</stageThreshold>
      <weakClassifiers>
        <_>
          <internalNodes>
            0 -1 24 9.2209142167121172e-05</internalNodes>
          <leafValues>
            1. -9.6656835079193115e-01</leafValues></_>
        <_>
          <internalNodes>
            0 -1 3 7.2928844019770622e-03</internalNodes>
          <leafValues>
            -9.2831575870513916e-01 1.</leafValues></_>
        <_>
          <internalNodes>
            0 -1 8 -4.0624843677505851e-04</internalNodes>
          <leafValues>
            1. -8.6000591516494751e-01</leafValues></_></weakClassifiers></_></stages>
  <features>
    <_>
      <rects>
        <_>
          0 2 2 10 -1.</_>
        <_>
          0 2 1 5 2.</_>
        <_>
          1 7 1 5 2.</_></rects>
      <tilted>0</tilted></_>
    <_>
      <rects>
        <_>
          0 4 2 1 -1.</_>
        <_>
          1 4 1 1 2.</_></rects>
      <tilted>0</tilted></_>
    <_>
      <rects>
        <_>
          0 4 9 17 -1.</_>
        <_>
          3 4 3 17 3.</_></rects>
      <tilted>0</tilted></_>
    <_>
      <rects>
        <_>
          0 8 18 4 -1.</_>
        <_>
          0 8 9 2 2.</_>
        <_>
          9 10 9 2 2.</_></rects>
      <tilted>0</tilted></_>
    <_>
      <rects>
        <_>
          0 8 10 15 -1.</_>
        <_>
          0 13 10 5 3.</_></rects>
      <tilted>0</tilted></_>
    <_>
      <rects>
        <_>
          0 14 4 6 -1.</_>
        <_>
          2 14 2 6 2.</_></rects>
      <tilted>0</tilted></_>
    <_>
      <rects>
        <_>
          1 0 8 1 -1.</_>
        <_>
          5 0 4 1 2.</_></rects>
      <tilted>0</tilted></_>
    <_>
      <rects>
        <_>
          1 2 4 6 -1.</_>
        <_>
          1 2 2 3 2.</_>
        <_>
          3 5 2 3 2.</_></rects>
      <tilted>0</tilted></_>
    <_>
      <rects>
        <_>
          1 18 6 3 -1.</_>
        <_>
          1 19 6 1 3.</_></rects>
      <tilted>0</tilted></_>
    <_>
      <rects>
        <_>
          2 8 3 16 -1.</_>
        <_>
          2 16 3 8 2.</_></rects>
      <tilted>0</tilted></_>
    <_>
      <rects>
        <_>
          2 12 4 12 -1.</_>
        <_>
          2 18 4 6 2.</_></rects>
      <tilted>0</tilted></_>
    <_>
      <rects>
        <_>
          2 13 2 9 -1.</_>
        <_>
          3 13 1 9 2.</_></rects>
      <tilted>0</tilted></_>
    <_>
      <rects>
        <_>
          3 0 14 24 -1.</_>
        <_>
          3 8 14 8 3.</_></rects>
      <tilted>0</tilted></_>
    <_>
      <rects>
        <_>
          3 9 2 14 -1.</_>
        <_>
          4 9 1 14 2.</_></rects>
      <tilted>0</tilted></_>
    <_>
      <rects>
        <_>
          4 0 4 10 -1.</_>
        <_>
          6 0 2 10 2.</_></rects>
      <tilted>0</tilted></_>
    <_>
      <rects>
        <_>
          4 3 11 4 -1.</_>
        <_>
          4 5 11 2 2.</_></rects>
      <tilted>0</tilted></_>
    <_>
      <rects>
        <_>
          4 9 1 2 -1.</_>
        <_>
          4 10 1 1 2.</_></rects>
      <tilted>0</tilted></_>
    <_>
      <rects>
        <_>
          4 11 1 2 -1.</_>
        <_>
          4 12 1 1 2.</_></rects>
      <tilted>0</tilted></_>
    <_>
      <rects>
        <_>
          4 11 4 6 -1.</_>
        <_>
          4 14 4 3 2.</_></rects>
      <tilted>0</tilted></_>
    <_>
      <rects>
        <_>
          4 18 9 4 -1.</_>
        <_>
          4 20 9 2 2.</_></rects>
      <tilted>0</tilted></_>
    <_>
      <rects>
        <_>
          5 0 5 15 -1.</_>
        <_>
          5 5 5 5 3.</_></rects>
      <tilted>0</tilted></_>
    <_>
      <rects>
        <_>
          5 16 10 8 -1.</_>
        <_>
          5 20 10 4 2.</_></rects>
      <tilted>0</tilted></_>
    <_>
      <rects>
        <_>
          6 9 1 2 -1.</_>
        <_>
          6 10 1 1 2.</_></rects>
      <tilted>0</tilted></_>
    <_>
      <rects>
        <_>
          7 0 6 8 -1.</_>
        <_>
          9 0 2 8 3.</_></rects>
      <tilted>0</tilted></_>
    <_>
      <rects>
        <_>
          8 13 5 6 -1.</_>
        <_>
          8 15 5 2 3.</_></rects>
      <tilted>0</tilted></_>
    <_>
      <rects>
        <_>
          10 1 6 20 -1.</_>
        <_>
          12 1 2 20 3.</_></rects>
      <tilted>0</tilted></_>
    <_>
      <rects>
        <_>
          10 9 1 6 -1.</_>
        <_>
          10 11 1 2 3.</_></rects>
      <tilted>0</tilted></_>
    <_>
      <rects>
        <_>
          11 0 7 14 -1.</_>
        <_>
          11 7 7 7 2.</_></rects>
      <tilted>0</tilted></_>
    <_>
      <rects>
        <_>
          13 10 2 1 -1.</_>
        <_>
          14 10 1 1 2.</_></rects>
      <tilted>0</tilted></_>
    <_>
      <rects>
        <_>
          14 11 2 1 -1.</_>
        <_>
          15 11 1 1 2.</_></rects>
      <tilted>0</tilted></_>
    <_>
      <rects>
        <_>
          14 16 4 4 -1.</_>
        <_>
          14 16 2 2 2.</_>
        <_>
          16 18 2 2 2.</_></rects>
      <tilted>0</tilted></_></features></cascade>
</opencv_storage>
