<?xml version="1.0"?>
<opencv_storage>
<cascade>
  <stageType>BOOST</stageType>
  <featureType>HAAR</featureType>
  <height>24</height>
  <width>24</width>
  <stageParams>
    <boostType>GAB</boostType>
    <minHitRate>9.9500000476837158e-01</minHitRate>
    <maxFalseAlarm>5.0000000000000000e-01</maxFalseAlarm>
    <weightTrimRate>9.4999998807907104e-01</weightTrimRate>
    <maxDepth>1</maxDepth>
    <maxWeakCount>100</maxWeakCount></stageParams>
  <featureParams>
    <maxCatCount>0</maxCatCount>
    <featSize>1</featSize>
    <mode>BASIC</mode></featureParams>
  <stageNum>11</stageNum>
  <stages>
    <!-- stage 0 -->
    <_>
      <maxWeakCount>2</maxWeakCount>
      <stageThreshold>-4.9786499142646790e-01</stageThreshold>
      <weakClassifiers>
        <_>
          <internalNodes>
            0 -1 13 2.6039338111877441e-01</internalNodes>
          <leafValues>
            -9.7946614027023315e-01 4.9295774102210999e-01</leafValues></_>
        <_>
          <internalNodes>
            0 -1 2 2.2939456999301910e-01</internalNodes>
          <leafValues>
            -9.9082273244857788e-01 5.8540111780166626e-01</leafValues></_></weakClassifiers></_>
    <!-- stage 1 -->
    <_>
      <maxWeakCount>3</maxWeakCount>
      <stageThreshold>-1.3432971239089966e+00</stageThreshold>
      <weakClassifiers>
        <_>
          <internalNodes>
            0 -1 27 -2.4795984849333763e-02</internalNodes>
          <leafValues>
            4.8235294222831726e-01 -8.9718717336654663e-01</leafValues></_>
        <_>
          <internalNodes>
            0 -1 0 4.2923010885715485e-02</internalNodes>
          <leafValues>
            -8.7639552354812622e-01 4.0211021900177002e-01</leafValues></_>
        <_>
          <internalNodes>
            0 -1 16 3.6581296473741531e-02</internalNodes>
          <leafValues>
            -8.4822016954421997e-01 6.2377882003784180e-01</leafValues></_></weakClassifiers></_>
    <!-- stage 2 -->
    <_>
      <maxWeakCount>3</maxWeakCount>
      <stageThreshold>-1.5198218822479248e+00</stageThreshold>
      <weakClassifiers>
        <_>
          <internalNodes>
            0 -1 32 -2.6228347793221474e-02</internalNodes>
          <leafValues>
            5.5555558204650879e-01 -8.9758455753326416e-01</leafValues></_>
        <_>
          <internalNodes>
            0 -1 8 2.2844588384032249e-02</internalNodes>
          <leafValues>
            -9.3192517757415771e-01 3.3733746409416199e-01</leafValues></_>
        <_>
          <internalNodes>
            0 -1 25 -2.7983047068119049e-02</internalNodes>
          <leafValues>
            4.1369733214378357e-01 -9.5957475900650024e-01</leafValues></_></weakClassifiers></_>
    <!-- stage 3 -->
    <_>
      <maxWeakCount>3</maxWeakCount>
      <stageThreshold>-1.5321534872055054e+00</stageThreshold>
      <weakClassifiers>
        <_>
          <internalNodes>
            0 -1 14 -1.1686970479786396e-02</internalNodes>
          <leafValues>
            6.1403506994247437e-01 -8.6779981851577759e-01</leafValues></_>
        <_>
          <internalNodes>
            0 -1 31 -7.4180881492793560e-03</internalNodes>
          <leafValues>
            2.9320538043975830e-01 -9.2306798696517944e-01</leafValues></_>
        <_>
          <internalNodes>
            0 -1 23 1.2505776248872280e-02</internalNodes>
          <leafValues>
            -9.5755904912948608e-01 4.3638795614242554e-01</leafValues></_></weakClassifiers></_>
    <!-- stage 4 -->
    <_>
      <maxWeakCount>3</maxWeakCount>
      <stageThreshold>-1.4673721790313721e+00</stageThreshold>
      <weakClassifiers>
        <_>
          <internalNodes>
            0 -1 34 2.5778800249099731e-02</internalNodes>
          <leafValues>
            -8.6854457855224609e-01 8.0392158031463623e-01</leafValues></_>
        <_>
          <internalNodes>
            0 -1 1 1.1061819642782211e-01</internalNodes>
          <leafValues>
            -9.3131995201110840e-01 2.8560212254524231e-01</leafValues></_>
        <_>
          <internalNodes>
            0 -1 12 8.1943869590759277e-03</internalNodes>
          <leafValues>
            -8.8442975282669067e-01 4.2050677537918091e-01</leafValues></_></weakClassifiers></_>
    <!-- stage 5 -->
    <_>
      <maxWeakCount>3</maxWeakCount>
      <stageThreshold>-1.3485649824142456e+00</stageThreshold>
      <weakClassifiers>
        <_>
          <internalNodes>
            0 -1 22 3.5790115594863892e-02</internalNodes>
          <leafValues>
            -8.7157696485519409e-01 6.8421053886413574e-01</leafValues></_>
        <_>
          <internalNodes>
            0 -1 19 -6.1331866309046745e-03</internalNodes>
          <leafValues>
            4.5453459024429321e-01 -7.3876887559890747e-01</leafValues></_>
        <_>
          <internalNodes>
            0 -1 15 -8.1126894801855087e-03</internalNodes>
          <leafValues>
            3.7934544682502747e-01 -9.3152260780334473e-01</leafValues></_></weakClassifiers></_>
    <!-- stage 6 -->
    <_>
      <maxWeakCount>4</maxWeakCount>
      <stageThreshold>-1.2921257019042969e+00</stageThreshold>
      <weakClassifiers>
        <_>
          <internalNodes>
            0 -1 33 -2.3864155635237694e-02</internalNodes>
          <leafValues>
            4.8235294222831726e-01 -8.9718717336654663e-01</leafValues></_>
        <_>
          <internalNodes>
            0 -1 20 -1.3571698218584061e-02</internalNodes>
          <leafValues>
            9.0222924947738647e-02 -9.6756225824356079e-01</leafValues></_>
        <_>
          <internalNodes>
            0 -1 7 7.4657471850514412e-03</internalNodes>
          <leafValues>
            -8.1324219703674316e-01 3.9738959074020386e-01</leafValues></_>
        <_>
          <internalNodes>
            0 -1 21 -5.8020045980811119e-03</internalNodes>
          <leafValues>
            3.8525217771530151e-01 -8.8255107402801514e-01</leafValues></_></weakClassifiers></_>
    <!-- stage 7 -->
    <_>
      <maxWeakCount>5</maxWeakCount>
      <stageThreshold>-1.1411098241806030e+00</stageThreshold>
      <weakClassifiers>
        <_>
          <internalNodes>
            0 -1 30 -2.0376697182655334e-02</internalNodes>
          <leafValues>
            5.3623187541961670e-01 -8.7965613603591919e-01</leafValues></_>
        <_>
          <internalNodes>
            0 -1 3 1.3976906426250935e-02</internalNodes>
          <leafValues>
            -6.5043038129806519e-01 6.0135942697525024e-01</leafValues></_>
        <_>
          <internalNodes>
            0 -1 9 6.6735232248902321e-03</internalNodes>
          <leafValues>
            -8.4662032127380371e-01 3.9127850532531738e-01</leafValues></_>
        <_>
          <internalNodes>
            0 -1 26 2.7758416254073381e-03</internalNodes>
          <leafValues>
            -7.5961720943450928e-01 4.5745858550071716e-01</leafValues></_>
        <_>
          <internalNodes>
            0 -1 18 1.5373852103948593e-02</internalNodes>
          <leafValues>
            -4.5976036787033081e-01 8.7071502208709717e-01</leafValues></_></weakClassifiers></_>
    <!-- stage 8 -->
    <_>
      <maxWeakCount>4</maxWeakCount>
      <stageThreshold>-1.4128496646881104e+00</stageThreshold>
      <weakClassifiers>
        <_>
          <internalNodes>
            0 -1 24 -3.1140588223934174e-02</internalNodes>
          <leafValues>
            8.6440676450729370e-01 -8.8457900285720825e-01</leafValues></_>
        <_>
          <internalNodes>
            0 -1 28 -1.2050813063979149e-02</internalNodes>
          <leafValues>
            1.8175569176673889e-01 -8.7762683629989624e-01</leafValues></_>
        <_>
          <internalNodes>
            0 -1 29 1.6793521121144295e-02</internalNodes>
          <leafValues>
            -9.2552870512008667e-01 2.5706881284713745e-01</leafValues></_>
        <_>
          <internalNodes>
            0 -1 5 4.1508446447551250e-03</internalNodes>
          <leafValues>
            -9.6709519624710083e-01 2.7704524993896484e-01</leafValues></_></weakClassifiers></_>
    <!-- stage 9 -->
    <_>
      <maxWeakCount>4</maxWeakCount>
      <stageThreshold>-1.2288162708282471e+00</stageThreshold>
      <weakClassifiers>
        <_>
          <internalNodes>
            0 -1 17 4.1515797376632690e-02</internalNodes>
          <leafValues>
            -9.0114068984985352e-01 1.</leafValues></_>
        <_>
          <internalNodes>
            0 -1 4 -7.5549292378127575e-03</internalNodes>
          <leafValues>
            1. -7.2763776779174805e-01</leafValues></_>
        <_>
          <internalNodes>
            0 -1 6 8.3191674202680588e-03</internalNodes>
          <leafValues>
            -4.5402556657791138e-01 9.5887380838394165e-01</leafValues></_>
        <_>
          <internalNodes>
            0 -1 10 -1.0693586955312639e-04</internalNodes>
          <leafValues>
            8.5398769378662109e-01 -5.5730652809143066e-01</leafValues></_></weakClassifiers></_>
    <!-- stage 10 -->
    <_>
      <maxWeakCount>1</maxWeakCount>
      <stageThreshold>1.</stageThreshold>
      <weakClassifiers>
        <_>
          <internalNodes>
            0 -1 11 -1.1303539387881756e-02</internalNodes>
          <leafValues>
            -1. 1.</leafValues></_></weakClassifiers></_></stages>
  <features>
    <_>
      <rects>
        <_>
          0 0 10 10 -1.</_>
        <_>
          0 0 5 5 2.</_>
        <_>
          5 5 5 5 2.</_></rects>
      <tilted>0</tilted></_>
    <_>
      <rects>
        <_>
          0 3 12 16 -1.</_>
        <_>
          6 3 6 16 2.</_></rects>
      <tilted>0</tilted></_>
    <_>
      <rects>
        <_>
          0 3 24 18 -1.</_>
        <_>
          8 3 8 18 3.</_></rects>
      <tilted>0</tilted></_>
    <_>
      <rects>
        <_>
          0 10 2 10 -1.</_>
        <_>
          0 10 1 5 2.</_>
        <_>
          1 15 1 5 2.</_></rects>
      <tilted>0</tilted></_>
    <_>
      <rects>
        <_>
          1 6 1 6 -1.</_>
        <_>
          1 9 1 3 2.</_></rects>
      <tilted>0</tilted></_>
    <_>
      <rects>
        <_>
          1 9 12 12 -1.</_>
        <_>
          1 13 12 4 3.</_></rects>
      <tilted>0</tilted></_>
    <_>
      <rects>
        <_>
          1 12 2 7 -1.</_>
        <_>
          2 12 1 7 2.</_></rects>
      <tilted>0</tilted></_>
    <_>
      <rects>
        <_>
          2 4 14 1 -1.</_>
        <_>
          9 4 7 1 2.</_></rects>
      <tilted>0</tilted></_>
    <_>
      <rects>
        <_>
          2 11 6 10 -1.</_>
        <_>
          5 11 3 10 2.</_></rects>
      <tilted>0</tilted></_>
    <_>
      <rects>
        <_>
          3 2 10 4 -1.</_>
        <_>
          3 4 10 2 2.</_></rects>
      <tilted>0</tilted></_>
    <_>
      <rects>
        <_>
          3 4 2 2 -1.</_>
        <_>
          3 4 1 1 2.</_>
        <_>
          4 5 1 1 2.</_></rects>
      <tilted>0</tilted></_>
    <_>
      <rects>
        <_>
          3 16 20 1 -1.</_>
        <_>
          13 16 10 1 2.</_></rects>
      <tilted>0</tilted></_>
    <_>
      <rects>
        <_>
          4 0 1 16 -1.</_>
        <_>
          4 8 1 8 2.</_></rects>
      <tilted>0</tilted></_>
    <_>
      <rects>
        <_>
          4 0 17 24 -1.</_>
        <_>
          4 8 17 8 3.</_></rects>
      <tilted>0</tilted></_>
    <_>
      <rects>
        <_>
          4 21 4 2 -1.</_>
        <_>
          4 21 2 1 2.</_>
        <_>
          6 22 2 1 2.</_></rects>
      <tilted>0</tilted></_>
    <_>
      <rects>
        <_>
          5 10 1 14 -1.</_>
        <_>
          5 17 1 7 2.</_></rects>
      <tilted>0</tilted></_>
    <_>
      <rects>
        <_>
          8 12 8 12 -1.</_>
        <_>
          8 16 8 4 3.</_></rects>
      <tilted>0</tilted></_>
    <_>
      <rects>
        <_>
          8 18 9 6 -1.</_>
        <_>
          8 20 9 2 3.</_></rects>
      <tilted>0</tilted></_>
    <_>
      <rects>
        <_>
          8 21 7 3 -1.</_>
        <_>
          8 22 7 1 3.</_></rects>
      <tilted>0</tilted></_>
    <_>
      <rects>
        <_>
          9 22 10 2 -1.</_>
        <_>
          9 22 5 1 2.</_>
        <_>
          14 23 5 1 2.</_></rects>
      <tilted>0</tilted></_>
    <_>
      <rects>
        <_>
          12 5 12 2 -1.</_>
        <_>
          18 5 6 2 2.</_></rects>
      <tilted>0</tilted></_>
    <_>
      <rects>
        <_>
          12 17 12 1 -1.</_>
        <_>
          18 17 6 1 2.</_></rects>
      <tilted>0</tilted></_>
    <_>
      <rects>
        <_>
          14 20 8 4 -1.</_>
        <_>
          14 20 4 2 2.</_>
        <_>
          18 22 4 2 2.</_></rects>
      <tilted>0</tilted></_>
    <_>
      <rects>
        <_>
          15 0 2 10 -1.</_>
        <_>
          15 5 2 5 2.</_></rects>
      <tilted>0</tilted></_>
    <_>
      <rects>
        <_>
          15 0 6 4 -1.</_>
        <_>
          15 0 3 2 2.</_>
        <_>
          18 2 3 2 2.</_></rects>
      <tilted>0</tilted></_>
    <_>
      <rects>
        <_>
          15 3 8 13 -1.</_>
        <_>
          19 3 4 13 2.</_></rects>
      <tilted>0</tilted></_>
    <_>
      <rects>
        <_>
          15 10 9 1 -1.</_>
        <_>
          18 10 3 1 3.</_></rects>
      <tilted>0</tilted></_>
    <_>
      <rects>
        <_>
          16 1 6 4 -1.</_>
        <_>
          16 1 3 2 2.</_>
        <_>
          19 3 3 2 2.</_></rects>
      <tilted>0</tilted></_>
    <_>
      <rects>
        <_>
          16 14 2 10 -1.</_>
        <_>
          16 19 2 5 2.</_></rects>
      <tilted>0</tilted></_>
    <_>
      <rects>
        <_>
          17 0 2 14 -1.</_>
        <_>
          17 7 2 7 2.</_></rects>
      <tilted>0</tilted></_>
    <_>
      <rects>
        <_>
          19 2 4 4 -1.</_>
        <_>
          19 2 2 2 2.</_>
        <_>
          21 4 2 2 2.</_></rects>
      <tilted>0</tilted></_>
    <_>
      <rects>
        <_>
          19 9 1 14 -1.</_>
        <_>
          19 16 1 7 2.</_></rects>
      <tilted>0</tilted></_>
    <_>
      <rects>
        <_>
          20 3 4 6 -1.</_>
        <_>
          20 3 2 3 2.</_>
        <_>
          22 6 2 3 2.</_></rects>
      <tilted>0</tilted></_>
    <_>
      <rects>
        <_>
          20 6 4 4 -1.</_>
        <_>
          22 6 2 4 2.</_></rects>
      <tilted>0</tilted></_>
    <_>
      <rects>
        <_>
          22 10 2 12 -1.</_>
        <_>
          22 10 1 6 2.</_>
        <_>
          23 16 1 6 2.</_></rects>
      <tilted>0</tilted></_></features></cascade>
</opencv_storage>
