<?xml version="1.0"?>
<opencv_storage>
<cascade>
  <stageType>BOOST</stageType>
  <featureType>HAAR</featureType>
  <height>24</height>
  <width>32</width>
  <stageParams>
    <boostType>GAB</boostType>
    <minHitRate>9.9500000476837158e-01</minHitRate>
    <maxFalseAlarm>5.0000000000000000e-01</maxFalseAlarm>
    <weightTrimRate>9.4999998807907104e-01</weightTrimRate>
    <maxDepth>1</maxDepth>
    <maxWeakCount>100</maxWeakCount></stageParams>
  <featureParams>
    <maxCatCount>0</maxCatCount>
    <featSize>1</featSize>
    <mode>BASIC</mode></featureParams>
  <stageNum>6</stageNum>
  <stages>
    <!-- stage 0 -->
    <_>
      <maxWeakCount>2</maxWeakCount>
      <stageThreshold>-1.4009840786457062e-01</stageThreshold>
      <weakClassifiers>
        <_>
          <internalNodes>
            0 -1 4 7.3210066556930542e-01</internalNodes>
          <leafValues>
            -9.9398195743560791e-01 8.4415584802627563e-01</leafValues></_>
        <_>
          <internalNodes>
            0 -1 5 8.1857331097126007e-02</internalNodes>
          <leafValues>
            -9.8425424098968506e-01 8.6440205574035645e-01</leafValues></_></weakClassifiers></_>
    <!-- stage 1 -->
    <_>
      <maxWeakCount>3</maxWeakCount>
      <stageThreshold>-1.4247848987579346e+00</stageThreshold>
      <weakClassifiers>
        <_>
          <internalNodes>
            0 -1 13 -2.8267698362469673e-02</internalNodes>
          <leafValues>
            8.2758623361587524e-01 -9.5866143703460693e-01</leafValues></_>
        <_>
          <internalNodes>
            0 -1 10 2.8615003451704979e-02</internalNodes>
          <leafValues>
            -9.7926515340805054e-01 5.9513688087463379e-01</leafValues></_>
        <_>
          <internalNodes>
            0 -1 6 1.0233636200428009e-01</internalNodes>
          <leafValues>
            -9.8201984167098999e-01 5.1314163208007813e-01</leafValues></_></weakClassifiers></_>
    <!-- stage 2 -->
    <_>
      <maxWeakCount>3</maxWeakCount>
      <stageThreshold>-1.3926935195922852e+00</stageThreshold>
      <weakClassifiers>
        <_>
          <internalNodes>
            0 -1 9 3.2942205667495728e-02</internalNodes>
          <leafValues>
            -9.7402596473693848e-01 6.7123287916183472e-01</leafValues></_>
        <_>
          <internalNodes>
            0 -1 14 1.7671700567007065e-02</internalNodes>
          <leafValues>
            -9.2929333448410034e-01 6.7947006225585938e-01</leafValues></_>
        <_>
          <internalNodes>
            0 -1 8 -1.5876181423664093e-01</internalNodes>
          <leafValues>
            5.1062577962875366e-01 -9.8984086513519287e-01</leafValues></_></weakClassifiers></_>
    <!-- stage 3 -->
    <_>
      <maxWeakCount>2</maxWeakCount>
      <stageThreshold>-8.1354999542236328e-01</stageThreshold>
      <weakClassifiers>
        <_>
          <internalNodes>
            0 -1 12 -7.0399157702922821e-02</internalNodes>
          <leafValues>
            8.8235294818878174e-01 -9.8011928796768188e-01</leafValues></_>
        <_>
          <internalNodes>
            0 -1 7 -1.1627784930169582e-02</internalNodes>
          <leafValues>
            1.6656927764415741e-01 -9.9049568176269531e-01</leafValues></_></weakClassifiers></_>
    <!-- stage 4 -->
    <_>
      <maxWeakCount>3</maxWeakCount>
      <stageThreshold>-1.3395437002182007e+00</stageThreshold>
      <weakClassifiers>
        <_>
          <internalNodes>
            0 -1 2 1.0984573513269424e-01</internalNodes>
          <leafValues>
            -9.8400002717971802e-01 7.8378379344940186e-01</leafValues></_>
        <_>
          <internalNodes>
            0 -1 3 5.8653664588928223e-01</internalNodes>
          <leafValues>
            -9.5189642906188965e-01 7.1156787872314453e-01</leafValues></_>
        <_>
          <internalNodes>
            0 -1 11 -2.8749847412109375e-01</internalNodes>
          <leafValues>
            5.9635269641876221e-01 -9.8440521955490112e-01</leafValues></_></weakClassifiers></_>
    <!-- stage 5 -->
    <_>
      <maxWeakCount>2</maxWeakCount>
      <stageThreshold>1.9980019424110651e-03</stageThreshold>
      <weakClassifiers>
        <_>
          <internalNodes>
            0 -1 1 4.4851461425423622e-03</internalNodes>
          <leafValues>
            -9.9800199270248413e-01 1.</leafValues></_>
        <_>
          <internalNodes>
            0 -1 0 -1.8725350499153137e-02</internalNodes>
          <leafValues>
            1. -9.9601596593856812e-01</leafValues></_></weakClassifiers></_></stages>
  <features>
    <_>
      <rects>
        <_>
          0 3 13 12 -1.</_>
        <_>
          0 7 13 4 3.</_></rects>
      <tilted>0</tilted></_>
    <_>
      <rects>
        <_>
          0 8 6 8 -1.</_>
        <_>
          0 8 3 4 2.</_>
        <_>
          3 12 3 4 2.</_></rects>
      <tilted>0</tilted></_>
    <_>
      <rects>
        <_>
          0 13 16 7 -1.</_>
        <_>
          8 13 8 7 2.</_></rects>
      <tilted>0</tilted></_>
    <_>
      <rects>
        <_>
          1 2 27 21 -1.</_>
        <_>
          10 2 9 21 3.</_></rects>
      <tilted>0</tilted></_>
    <_>
      <rects>
        <_>
          1 2 30 19 -1.</_>
        <_>
          11 2 10 19 3.</_></rects>
      <tilted>0</tilted></_>
    <_>
      <rects>
        <_>
          2 10 25 9 -1.</_>
        <_>
          2 13 25 3 3.</_></rects>
      <tilted>0</tilted></_>
    <_>
      <rects>
        <_>
          3 4 12 8 -1.</_>
        <_>
          9 4 6 8 2.</_></rects>
      <tilted>0</tilted></_>
    <_>
      <rects>
        <_>
          6 8 6 8 -1.</_>
        <_>
          6 8 3 4 2.</_>
        <_>
          9 12 3 4 2.</_></rects>
      <tilted>0</tilted></_>
    <_>
      <rects>
        <_>
          6 13 22 10 -1.</_>
        <_>
          6 18 22 5 2.</_></rects>
      <tilted>0</tilted></_>
    <_>
      <rects>
        <_>
          9 0 14 6 -1.</_>
        <_>
          9 2 14 2 3.</_></rects>
      <tilted>0</tilted></_>
    <_>
      <rects>
        <_>
          13 15 7 9 -1.</_>
        <_>
          13 18 7 3 3.</_></rects>
      <tilted>0</tilted></_>
    <_>
      <rects>
        <_>
          14 4 18 16 -1.</_>
        <_>
          23 4 9 16 2.</_></rects>
      <tilted>0</tilted></_>
    <_>
      <rects>
        <_>
          17 3 14 4 -1.</_>
        <_>
          24 3 7 4 2.</_></rects>
      <tilted>0</tilted></_>
    <_>
      <rects>
        <_>
          21 7 6 4 -1.</_>
        <_>
          24 7 3 4 2.</_></rects>
      <tilted>0</tilted></_>
    <_>
      <rects>
        <_>
          25 7 1 15 -1.</_>
        <_>
          25 12 1 5 3.</_></rects>
      <tilted>0</tilted></_></features></cascade>
</opencv_storage>
