<?xml version="1.0"?>
<opencv_storage>
<cascade>
  <stageType>BOOST</stageType>
  <featureType>HAAR</featureType>
  <height>24</height>
  <width>24</width>
  <stageParams>
    <boostType>GAB</boostType>
    <minHitRate>9.9500000476837158e-01</minHitRate>
    <maxFalseAlarm>5.0000000000000000e-01</maxFalseAlarm>
    <weightTrimRate>9.4999998807907104e-01</weightTrimRate>
    <maxDepth>1</maxDepth>
    <maxWeakCount>100</maxWeakCount></stageParams>
  <featureParams>
    <maxCatCount>0</maxCatCount>
    <featSize>1</featSize>
    <mode>BASIC</mode></featureParams>
  <stageNum>9</stageNum>
  <stages>
    <!-- stage 0 -->
    <_>
      <maxWeakCount>2</maxWeakCount>
      <stageThreshold>-4.7448569536209106e-01</stageThreshold>
      <weakClassifiers>
        <_>
          <internalNodes>
            0 -1 19 3.1032931059598923e-02</internalNodes>
          <leafValues>
            -9.6230161190032959e-01 7.9629629850387573e-01</leafValues></_>
        <_>
          <internalNodes>
            0 -1 3 1.3882109522819519e-01</internalNodes>
          <leafValues>
            -9.8551625013351440e-01 4.8781588673591614e-01</leafValues></_></weakClassifiers></_>
    <!-- stage 1 -->
    <_>
      <maxWeakCount>2</maxWeakCount>
      <stageThreshold>-5.2954554557800293e-01</stageThreshold>
      <weakClassifiers>
        <_>
          <internalNodes>
            0 -1 14 -3.5470437258481979e-02</internalNodes>
          <leafValues>
            7.5280898809432983e-01 -9.2599803209304810e-01</leafValues></_>
        <_>
          <internalNodes>
            0 -1 5 -2.5558245182037354e-01</internalNodes>
          <leafValues>
            3.9645248651504517e-01 -9.9475365877151489e-01</leafValues></_></weakClassifiers></_>
    <!-- stage 2 -->
    <_>
      <maxWeakCount>3</maxWeakCount>
      <stageThreshold>-1.4970752000808716e+00</stageThreshold>
      <weakClassifiers>
        <_>
          <internalNodes>
            0 -1 24 -1.5125608444213867e-01</internalNodes>
          <leafValues>
            6.1224490404129028e-01 -9.2730844020843506e-01</leafValues></_>
        <_>
          <internalNodes>
            0 -1 12 -2.2762143053114414e-03</internalNodes>
          <leafValues>
            4.1087153553962708e-01 -9.0694153308868408e-01</leafValues></_>
        <_>
          <internalNodes>
            0 -1 21 -4.3997805565595627e-02</internalNodes>
          <leafValues>
            3.8684257864952087e-01 -9.8063832521438599e-01</leafValues></_></weakClassifiers></_>
    <!-- stage 3 -->
    <_>
      <maxWeakCount>3</maxWeakCount>
      <stageThreshold>-1.1842213869094849e+00</stageThreshold>
      <weakClassifiers>
        <_>
          <internalNodes>
            0 -1 22 2.9254127293825150e-02</internalNodes>
          <leafValues>
            -9.1262137889862061e-01 6.5116280317306519e-01</leafValues></_>
        <_>
          <internalNodes>
            0 -1 18 -1.6614800319075584e-02</internalNodes>
          <leafValues>
            5.9457838535308838e-01 -8.4731763601303101e-01</leafValues></_>
        <_>
          <internalNodes>
            0 -1 20 3.5059332847595215e-02</internalNodes>
          <leafValues>
            -8.4822154045104980e-01 5.7571762800216675e-01</leafValues></_></weakClassifiers></_>
    <!-- stage 4 -->
    <_>
      <maxWeakCount>3</maxWeakCount>
      <stageThreshold>-1.5263055562973022e+00</stageThreshold>
      <weakClassifiers>
        <_>
          <internalNodes>
            0 -1 7 1.4509376883506775e-01</internalNodes>
          <leafValues>
            -9.2269575595855713e-01 4.3925234675407410e-01</leafValues></_>
        <_>
          <internalNodes>
            0 -1 13 1.1786000803112984e-02</internalNodes>
          <leafValues>
            -8.2300817966461182e-01 3.5517090559005737e-01</leafValues></_>
        <_>
          <internalNodes>
            0 -1 16 -5.8345586061477661e-02</internalNodes>
          <leafValues>
            3.7329488992691040e-01 -9.5878070592880249e-01</leafValues></_></weakClassifiers></_>
    <!-- stage 5 -->
    <_>
      <maxWeakCount>3</maxWeakCount>
      <stageThreshold>-1.4288749694824219e+00</stageThreshold>
      <weakClassifiers>
        <_>
          <internalNodes>
            0 -1 4 1.1994700133800507e-01</internalNodes>
          <leafValues>
            -9.0335303544998169e-01 3.1372550129890442e-01</leafValues></_>
        <_>
          <internalNodes>
            0 -1 0 1.5461072325706482e-01</internalNodes>
          <leafValues>
            -8.5207754373550415e-01 4.4598335027694702e-01</leafValues></_>
        <_>
          <internalNodes>
            0 -1 8 3.6133220419287682e-03</internalNodes>
          <leafValues>
            -9.7781378030776978e-01 3.2655557990074158e-01</leafValues></_></weakClassifiers></_>
    <!-- stage 6 -->
    <_>
      <maxWeakCount>4</maxWeakCount>
      <stageThreshold>-2.1663475036621094e+00</stageThreshold>
      <weakClassifiers>
        <_>
          <internalNodes>
            0 -1 10 1.7710251733660698e-02</internalNodes>
          <leafValues>
            -9.2407590150833130e-01 3.5652172565460205e-01</leafValues></_>
        <_>
          <internalNodes>
            0 -1 23 1.8568053841590881e-02</internalNodes>
          <leafValues>
            -7.7243340015411377e-01 5.6417489051818848e-01</leafValues></_>
        <_>
          <internalNodes>
            0 -1 1 1.9489607214927673e-01</internalNodes>
          <leafValues>
            -8.7391120195388794e-01 4.7501564025878906e-01</leafValues></_>
        <_>
          <internalNodes>
            0 -1 26 -2.9751046895398758e-05</internalNodes>
          <leafValues>
            4.0407311916351318e-01 -9.5352959632873535e-01</leafValues></_></weakClassifiers></_>
    <!-- stage 7 -->
    <_>
      <maxWeakCount>4</maxWeakCount>
      <stageThreshold>-1.9467219114303589e+00</stageThreshold>
      <weakClassifiers>
        <_>
          <internalNodes>
            0 -1 25 -1.0240249335765839e-01</internalNodes>
          <leafValues>
            5.8762884140014648e-01 -9.2345434427261353e-01</leafValues></_>
        <_>
          <internalNodes>
            0 -1 11 4.7035470604896545e-02</internalNodes>
          <leafValues>
            -8.6767715215682983e-01 4.1462299227714539e-01</leafValues></_>
        <_>
          <internalNodes>
            0 -1 6 2.7775932103395462e-02</internalNodes>
          <leafValues>
            -7.1215021610260010e-01 7.7364224195480347e-01</leafValues></_>
        <_>
          <internalNodes>
            0 -1 2 3.0443727970123291e-01</internalNodes>
          <leafValues>
            -9.6131747961044312e-01 5.5655986070632935e-01</leafValues></_></weakClassifiers></_>
    <!-- stage 8 -->
    <_>
      <maxWeakCount>3</maxWeakCount>
      <stageThreshold>-1.0849007368087769e+00</stageThreshold>
      <weakClassifiers>
        <_>
          <internalNodes>
            0 -1 17 -1.9927360117435455e-02</internalNodes>
          <leafValues>
            1. -9.5503419637680054e-01</leafValues></_>
        <_>
          <internalNodes>
            0 -1 15 9.3253608793020248e-03</internalNodes>
          <leafValues>
            -8.8435709476470947e-01 1.</leafValues></_>
        <_>
          <internalNodes>
            0 -1 9 -2.4331458844244480e-03</internalNodes>
          <leafValues>
            7.5449055433273315e-01 -8.8290733098983765e-01</leafValues></_></weakClassifiers></_></stages>
  <features>
    <_>
      <rects>
        <_>
          0 0 10 21 -1.</_>
        <_>
          5 0 5 21 2.</_></rects>
      <tilted>0</tilted></_>
    <_>
      <rects>
        <_>
          0 0 24 6 -1.</_>
        <_>
          8 0 8 6 3.</_></rects>
      <tilted>0</tilted></_>
    <_>
      <rects>
        <_>
          0 0 24 14 -1.</_>
        <_>
          8 0 8 14 3.</_></rects>
      <tilted>0</tilted></_>
    <_>
      <rects>
        <_>
          0 1 24 5 -1.</_>
        <_>
          8 1 8 5 3.</_></rects>
      <tilted>0</tilted></_>
    <_>
      <rects>
        <_>
          0 2 24 2 -1.</_>
        <_>
          8 2 8 2 3.</_></rects>
      <tilted>0</tilted></_>
    <_>
      <rects>
        <_>
          0 4 19 18 -1.</_>
        <_>
          0 13 19 9 2.</_></rects>
      <tilted>0</tilted></_>
    <_>
      <rects>
        <_>
          0 15 8 7 -1.</_>
        <_>
          4 15 4 7 2.</_></rects>
      <tilted>0</tilted></_>
    <_>
      <rects>
        <_>
          2 1 8 20 -1.</_>
        <_>
          6 1 4 20 2.</_></rects>
      <tilted>0</tilted></_>
    <_>
      <rects>
        <_>
          3 5 4 6 -1.</_>
        <_>
          3 7 4 2 3.</_></rects>
      <tilted>0</tilted></_>
    <_>
      <rects>
        <_>
          3 22 8 2 -1.</_>
        <_>
          3 23 8 1 2.</_></rects>
      <tilted>0</tilted></_>
    <_>
      <rects>
        <_>
          4 15 6 5 -1.</_>
        <_>
          6 15 2 5 3.</_></rects>
      <tilted>0</tilted></_>
    <_>
      <rects>
        <_>
          6 0 4 12 -1.</_>
        <_>
          6 4 4 4 3.</_></rects>
      <tilted>0</tilted></_>
    <_>
      <rects>
        <_>
          6 3 6 2 -1.</_>
        <_>
          6 3 3 1 2.</_>
        <_>
          9 4 3 1 2.</_></rects>
      <tilted>0</tilted></_>
    <_>
      <rects>
        <_>
          6 18 8 6 -1.</_>
        <_>
          6 20 8 2 3.</_></rects>
      <tilted>0</tilted></_>
    <_>
      <rects>
        <_>
          7 5 6 5 -1.</_>
        <_>
          10 5 3 5 2.</_></rects>
      <tilted>0</tilted></_>
    <_>
      <rects>
        <_>
          7 15 4 9 -1.</_>
        <_>
          7 18 4 3 3.</_></rects>
      <tilted>0</tilted></_>
    <_>
      <rects>
        <_>
          8 12 16 12 -1.</_>
        <_>
          16 12 8 12 2.</_></rects>
      <tilted>0</tilted></_>
    <_>
      <rects>
        <_>
          9 6 6 11 -1.</_>
        <_>
          11 6 2 11 3.</_></rects>
      <tilted>0</tilted></_>
    <_>
      <rects>
        <_>
          10 12 6 9 -1.</_>
        <_>
          12 12 2 9 3.</_></rects>
      <tilted>0</tilted></_>
    <_>
      <rects>
        <_>
          11 7 3 9 -1.</_>
        <_>
          11 10 3 3 3.</_></rects>
      <tilted>0</tilted></_>
    <_>
      <rects>
        <_>
          12 0 8 9 -1.</_>
        <_>
          12 3 8 3 3.</_></rects>
      <tilted>0</tilted></_>
    <_>
      <rects>
        <_>
          12 10 12 4 -1.</_>
        <_>
          18 10 6 4 2.</_></rects>
      <tilted>0</tilted></_>
    <_>
      <rects>
        <_>
          14 5 6 5 -1.</_>
        <_>
          16 5 2 5 3.</_></rects>
      <tilted>0</tilted></_>
    <_>
      <rects>
        <_>
          14 13 6 7 -1.</_>
        <_>
          16 13 2 7 3.</_></rects>
      <tilted>0</tilted></_>
    <_>
      <rects>
        <_>
          15 4 8 19 -1.</_>
        <_>
          19 4 4 19 2.</_></rects>
      <tilted>0</tilted></_>
    <_>
      <rects>
        <_>
          16 2 6 18 -1.</_>
        <_>
          19 2 3 18 2.</_></rects>
      <tilted>0</tilted></_>
    <_>
      <rects>
        <_>
          22 8 1 6 -1.</_>
        <_>
          22 10 1 2 3.</_></rects>
      <tilted>0</tilted></_></features></cascade>
</opencv_storage>
