<?xml version="1.0"?>
<opencv_storage>
<cascade>
  <stageType>BOOST</stageType>
  <featureType>HAAR</featureType>
  <height>24</height>
  <width>24</width>
  <stageParams>
    <boostType>GAB</boostType>
    <minHitRate>9.9500000476837158e-01</minHitRate>
    <maxFalseAlarm>5.0000000000000000e-01</maxFalseAlarm>
    <weightTrimRate>9.4999998807907104e-01</weightTrimRate>
    <maxDepth>1</maxDepth>
    <maxWeakCount>100</maxWeakCount></stageParams>
  <featureParams>
    <maxCatCount>0</maxCatCount>
    <featSize>1</featSize>
    <mode>BASIC</mode></featureParams>
  <stageNum>13</stageNum>
  <stages>
    <!-- stage 0 -->
    <_>
      <maxWeakCount>3</maxWeakCount>
      <stageThreshold>-1.1369876861572266e+00</stageThreshold>
      <weakClassifiers>
        <_>
          <internalNodes>
            0 -1 19 -2.3821989074349403e-02</internalNodes>
          <leafValues>
            7.2139304876327515e-01 -9.4594591856002808e-01</leafValues></_>
        <_>
          <internalNodes>
            0 -1 20 -9.0501606464385986e-03</internalNodes>
          <leafValues>
            7.0107215642929077e-01 -9.2226183414459229e-01</leafValues></_>
        <_>
          <internalNodes>
            0 -1 35 -1.3795908540487289e-02</internalNodes>
          <leafValues>
            7.7526360750198364e-01 -8.9211392402648926e-01</leafValues></_></weakClassifiers></_>
    <!-- stage 1 -->
    <_>
      <maxWeakCount>3</maxWeakCount>
      <stageThreshold>-1.2572363615036011e+00</stageThreshold>
      <weakClassifiers>
        <_>
          <internalNodes>
            0 -1 3 1.4984408020973206e-01</internalNodes>
          <leafValues>
            -9.3999999761581421e-01 6.9999998807907104e-01</leafValues></_>
        <_>
          <internalNodes>
            0 -1 2 1.0434111952781677e-01</internalNodes>
          <leafValues>
            -9.0225374698638916e-01 5.1394373178482056e-01</leafValues></_>
        <_>
          <internalNodes>
            0 -1 21 1.9242696464061737e-02</internalNodes>
          <leafValues>
            -8.3118009567260742e-01 7.6509809494018555e-01</leafValues></_></weakClassifiers></_>
    <!-- stage 2 -->
    <_>
      <maxWeakCount>3</maxWeakCount>
      <stageThreshold>-1.4710066318511963e+00</stageThreshold>
      <weakClassifiers>
        <_>
          <internalNodes>
            0 -1 30 3.8982972502708435e-02</internalNodes>
          <leafValues>
            -8.7246376276016235e-01 6.2424242496490479e-01</leafValues></_>
        <_>
          <internalNodes>
            0 -1 12 -4.1561375837773085e-05</internalNodes>
          <leafValues>
            3.2339641451835632e-01 -9.0019494295120239e-01</leafValues></_>
        <_>
          <internalNodes>
            0 -1 16 4.8836860514711589e-05</internalNodes>
          <leafValues>
            -9.2193925380706787e-01 3.8690501451492310e-01</leafValues></_></weakClassifiers></_>
    <!-- stage 3 -->
    <_>
      <maxWeakCount>3</maxWeakCount>
      <stageThreshold>-1.3185842037200928e+00</stageThreshold>
      <weakClassifiers>
        <_>
          <internalNodes>
            0 -1 28 -2.0103156566619873e-02</internalNodes>
          <leafValues>
            6.2500000000000000e-01 -9.1269838809967041e-01</leafValues></_>
        <_>
          <internalNodes>
            0 -1 34 5.5029835493769497e-05</internalNodes>
          <leafValues>
            -9.2499709129333496e-01 4.3514806032180786e-01</leafValues></_>
        <_>
          <internalNodes>
            0 -1 41 4.7437009925488383e-05</internalNodes>
          <leafValues>
            -8.4103381633758545e-01 5.6534147262573242e-01</leafValues></_></weakClassifiers></_>
    <!-- stage 4 -->
    <_>
      <maxWeakCount>3</maxWeakCount>
      <stageThreshold>-1.2392226457595825e+00</stageThreshold>
      <weakClassifiers>
        <_>
          <internalNodes>
            0 -1 24 -1.7101658508181572e-02</internalNodes>
          <leafValues>
            5.1041668653488159e-01 -8.9087301492691040e-01</leafValues></_>
        <_>
          <internalNodes>
            0 -1 14 -1.4343498274683952e-02</internalNodes>
          <leafValues>
            6.1415654420852661e-01 -7.3443716764450073e-01</leafValues></_>
        <_>
          <internalNodes>
            0 -1 5 3.2343141734600067e-02</internalNodes>
          <leafValues>
            -9.6250611543655396e-01 4.2610812187194824e-01</leafValues></_></weakClassifiers></_>
    <!-- stage 5 -->
    <_>
      <maxWeakCount>3</maxWeakCount>
      <stageThreshold>-1.1233105659484863e+00</stageThreshold>
      <weakClassifiers>
        <_>
          <internalNodes>
            0 -1 26 4.7730017453432083e-02</internalNodes>
          <leafValues>
            -8.4410643577575684e-01 5.9459459781646729e-01</leafValues></_>
        <_>
          <internalNodes>
            0 -1 23 1.7983415722846985e-01</internalNodes>
          <leafValues>
            -7.1249115467071533e-01 5.8254349231719971e-01</leafValues></_>
        <_>
          <internalNodes>
            0 -1 7 -4.4765278697013855e-02</internalNodes>
          <leafValues>
            4.4500657916069031e-01 -8.6174756288528442e-01</leafValues></_></weakClassifiers></_>
    <!-- stage 6 -->
    <_>
      <maxWeakCount>4</maxWeakCount>
      <stageThreshold>-1.9439803361892700e+00</stageThreshold>
      <weakClassifiers>
        <_>
          <internalNodes>
            0 -1 25 1.9478414207696915e-02</internalNodes>
          <leafValues>
            -8.7354087829589844e-01 5.6976741552352905e-01</leafValues></_>
        <_>
          <internalNodes>
            0 -1 40 4.7764224291313440e-05</internalNodes>
          <leafValues>
            -8.5761594772338867e-01 4.6491256356239319e-01</leafValues></_>
        <_>
          <internalNodes>
            0 -1 11 6.6559314727783203e-03</internalNodes>
          <leafValues>
            -6.4281511306762695e-01 6.7290902137756348e-01</leafValues></_>
        <_>
          <internalNodes>
            0 -1 13 5.7495475630275905e-05</internalNodes>
          <leafValues>
            -9.3162876367568970e-01 4.2999166250228882e-01</leafValues></_></weakClassifiers></_>
    <!-- stage 7 -->
    <_>
      <maxWeakCount>3</maxWeakCount>
      <stageThreshold>-1.1421245336532593e+00</stageThreshold>
      <weakClassifiers>
        <_>
          <internalNodes>
            0 -1 31 3.3367041498422623e-02</internalNodes>
          <leafValues>
            -8.2413470745086670e-01 6.1832058429718018e-01</leafValues></_>
        <_>
          <internalNodes>
            0 -1 22 -1.0529810562729836e-02</internalNodes>
          <leafValues>
            6.1047649383544922e-01 -6.5623134374618530e-01</leafValues></_>
        <_>
          <internalNodes>
            0 -1 17 -3.2103620469570160e-02</internalNodes>
          <leafValues>
            3.3824148774147034e-01 -1.</leafValues></_></weakClassifiers></_>
    <!-- stage 8 -->
    <_>
      <maxWeakCount>2</maxWeakCount>
      <stageThreshold>-8.5941177606582642e-01</stageThreshold>
      <weakClassifiers>
        <_>
          <internalNodes>
            0 -1 4 -3.5121515393257141e-02</internalNodes>
          <leafValues>
            -9.7111910581588745e-01 1.8970189616084099e-02</leafValues></_>
        <_>
          <internalNodes>
            0 -1 6 7.0452637970447540e-02</internalNodes>
          <leafValues>
            -8.7838196754455566e-01 3.0932930111885071e-01</leafValues></_></weakClassifiers></_>
    <!-- stage 9 -->
    <_>
      <maxWeakCount>4</maxWeakCount>
      <stageThreshold>-2.2016792297363281e+00</stageThreshold>
      <weakClassifiers>
        <_>
          <internalNodes>
            0 -1 32 2.3583449423313141e-02</internalNodes>
          <leafValues>
            -8.5132384300231934e-01 1.6513761878013611e-01</leafValues></_>
        <_>
          <internalNodes>
            0 -1 0 2.4598017334938049e-01</internalNodes>
          <leafValues>
            -9.7675979137420654e-01 2.8790232539176941e-01</leafValues></_>
        <_>
          <internalNodes>
            0 -1 40 4.7813966375542805e-05</internalNodes>
          <leafValues>
            -8.3581411838531494e-01 4.0493881702423096e-01</leafValues></_>
        <_>
          <internalNodes>
            0 -1 27 -8.2344113616272807e-04</internalNodes>
          <leafValues>
            4.0956044197082520e-01 -8.0244350433349609e-01</leafValues></_></weakClassifiers></_>
    <!-- stage 10 -->
    <_>
      <maxWeakCount>5</maxWeakCount>
      <stageThreshold>-1.3367105722427368e+00</stageThreshold>
      <weakClassifiers>
        <_>
          <internalNodes>
            0 -1 8 4.1705287992954254e-02</internalNodes>
          <leafValues>
            -8.3208954334259033e-01 7.1875000000000000e-01</leafValues></_>
        <_>
          <internalNodes>
            0 -1 38 2.3643247783184052e-02</internalNodes>
          <leafValues>
            -6.8303614854812622e-01 6.1571496725082397e-01</leafValues></_>
        <_>
          <internalNodes>
            0 -1 36 2.4591334164142609e-02</internalNodes>
          <leafValues>
            -8.0338025093078613e-01 5.0248450040817261e-01</leafValues></_>
        <_>
          <internalNodes>
            0 -1 1 -4.5317888725548983e-04</internalNodes>
          <leafValues>
            3.5657781362533569e-01 -9.3405091762542725e-01</leafValues></_>
        <_>
          <internalNodes>
            0 -1 15 -3.5725072026252747e-02</internalNodes>
          <leafValues>
            6.2521749734878540e-01 -6.5012025833129883e-01</leafValues></_></weakClassifiers></_>
    <!-- stage 11 -->
    <_>
      <maxWeakCount>3</maxWeakCount>
      <stageThreshold>-1.0842349529266357e+00</stageThreshold>
      <weakClassifiers>
        <_>
          <internalNodes>
            0 -1 33 1.3448134064674377e-01</internalNodes>
          <leafValues>
            -7.8976231813430786e-01 6.0377359390258789e-01</leafValues></_>
        <_>
          <internalNodes>
            0 -1 10 2.2048372030258179e-01</internalNodes>
          <leafValues>
            -7.8227537870407104e-01 4.2874670028686523e-01</leafValues></_>
        <_>
          <internalNodes>
            0 -1 39 4.7814588469918817e-05</internalNodes>
          <leafValues>
            -7.2321927547454834e-01 4.9218910932540894e-01</leafValues></_></weakClassifiers></_>
    <!-- stage 12 -->
    <_>
      <maxWeakCount>5</maxWeakCount>
      <stageThreshold>-1.1078515052795410e+00</stageThreshold>
      <weakClassifiers>
        <_>
          <internalNodes>
            0 -1 29 1.7414342612028122e-02</internalNodes>
          <leafValues>
            -7.8899908065795898e-01 8.2417583465576172e-01</leafValues></_>
        <_>
          <internalNodes>
            0 -1 18 -1.7065342515707016e-02</internalNodes>
          <leafValues>
            6.6828340291976929e-01 -6.9790935516357422e-01</leafValues></_>
        <_>
          <internalNodes>
            0 -1 42 -9.3357674777507782e-03</internalNodes>
          <leafValues>
            8.1137013435363770e-01 -4.7638246417045593e-01</leafValues></_>
        <_>
          <internalNodes>
            0 -1 9 1.1337435245513916e-01</internalNodes>
          <leafValues>
            -9.5990645885467529e-01 4.7166711091995239e-01</leafValues></_>
        <_>
          <internalNodes>
            0 -1 37 -5.2775532822124660e-05</internalNodes>
          <leafValues>
            5.2759325504302979e-01 -7.7402657270431519e-01</leafValues></_></weakClassifiers></_></stages>
  <features>
    <_>
      <rects>
        <_>
          0 0 20 20 -1.</_>
        <_>
          10 0 10 20 2.</_></rects>
      <tilted>0</tilted></_>
    <_>
      <rects>
        <_>
          0 1 1 21 -1.</_>
        <_>
          0 8 1 7 3.</_></rects>
      <tilted>0</tilted></_>
    <_>
      <rects>
        <_>
          0 2 10 12 -1.</_>
        <_>
          5 2 5 12 2.</_></rects>
      <tilted>0</tilted></_>
    <_>
      <rects>
        <_>
          0 2 24 5 -1.</_>
        <_>
          8 2 8 5 3.</_></rects>
      <tilted>0</tilted></_>
    <_>
      <rects>
        <_>
          0 11 24 10 -1.</_>
        <_>
          0 16 24 5 2.</_></rects>
      <tilted>0</tilted></_>
    <_>
      <rects>
        <_>
          0 18 14 6 -1.</_>
        <_>
          7 18 7 6 2.</_></rects>
      <tilted>0</tilted></_>
    <_>
      <rects>
        <_>
          1 0 12 12 -1.</_>
        <_>
          1 4 12 4 3.</_></rects>
      <tilted>0</tilted></_>
    <_>
      <rects>
        <_>
          1 5 23 10 -1.</_>
        <_>
          1 10 23 5 2.</_></rects>
      <tilted>0</tilted></_>
    <_>
      <rects>
        <_>
          2 6 9 4 -1.</_>
        <_>
          5 6 3 4 3.</_></rects>
      <tilted>0</tilted></_>
    <_>
      <rects>
        <_>
          2 6 18 13 -1.</_>
        <_>
          11 6 9 13 2.</_></rects>
      <tilted>0</tilted></_>
    <_>
      <rects>
        <_>
          3 0 21 14 -1.</_>
        <_>
          10 0 7 14 3.</_></rects>
      <tilted>0</tilted></_>
    <_>
      <rects>
        <_>
          3 16 6 2 -1.</_>
        <_>
          5 16 2 2 3.</_></rects>
      <tilted>0</tilted></_>
    <_>
      <rects>
        <_>
          4 8 1 2 -1.</_>
        <_>
          4 9 1 1 2.</_></rects>
      <tilted>0</tilted></_>
    <_>
      <rects>
        <_>
          5 3 2 1 -1.</_>
        <_>
          6 3 1 1 2.</_></rects>
      <tilted>0</tilted></_>
    <_>
      <rects>
        <_>
          5 16 12 1 -1.</_>
        <_>
          9 16 4 1 3.</_></rects>
      <tilted>0</tilted></_>
    <_>
      <rects>
        <_>
          6 20 15 4 -1.</_>
        <_>
          6 22 15 2 2.</_></rects>
      <tilted>0</tilted></_>
    <_>
      <rects>
        <_>
          7 3 2 1 -1.</_>
        <_>
          8 3 1 1 2.</_></rects>
      <tilted>0</tilted></_>
    <_>
      <rects>
        <_>
          7 8 6 16 -1.</_>
        <_>
          7 16 6 8 2.</_></rects>
      <tilted>0</tilted></_>
    <_>
      <rects>
        <_>
          7 15 9 6 -1.</_>
        <_>
          7 17 9 2 3.</_></rects>
      <tilted>0</tilted></_>
    <_>
      <rects>
        <_>
          8 5 6 15 -1.</_>
        <_>
          10 5 2 15 3.</_></rects>
      <tilted>0</tilted></_>
    <_>
      <rects>
        <_>
          8 13 6 6 -1.</_>
        <_>
          8 15 6 2 3.</_></rects>
      <tilted>0</tilted></_>
    <_>
      <rects>
        <_>
          9 0 10 4 -1.</_>
        <_>
          9 2 10 2 2.</_></rects>
      <tilted>0</tilted></_>
    <_>
      <rects>
        <_>
          9 5 4 6 -1.</_>
        <_>
          9 7 4 2 3.</_></rects>
      <tilted>0</tilted></_>
    <_>
      <rects>
        <_>
          9 5 15 14 -1.</_>
        <_>
          14 5 5 14 3.</_></rects>
      <tilted>0</tilted></_>
    <_>
      <rects>
        <_>
          9 6 5 6 -1.</_>
        <_>
          9 8 5 2 3.</_></rects>
      <tilted>0</tilted></_>
    <_>
      <rects>
        <_>
          9 9 5 6 -1.</_>
        <_>
          9 11 5 2 3.</_></rects>
      <tilted>0</tilted></_>
    <_>
      <rects>
        <_>
          10 11 10 6 -1.</_>
        <_>
          10 11 5 3 2.</_>
        <_>
          15 14 5 3 2.</_></rects>
      <tilted>0</tilted></_>
    <_>
      <rects>
        <_>
          10 12 3 5 -1.</_>
        <_>
          11 12 1 5 3.</_></rects>
      <tilted>0</tilted></_>
    <_>
      <rects>
        <_>
          10 12 2 9 -1.</_>
        <_>
          10 15 2 3 3.</_></rects>
      <tilted>0</tilted></_>
    <_>
      <rects>
        <_>
          10 14 10 1 -1.</_>
        <_>
          15 14 5 1 2.</_></rects>
      <tilted>0</tilted></_>
    <_>
      <rects>
        <_>
          10 15 8 3 -1.</_>
        <_>
          14 15 4 3 2.</_></rects>
      <tilted>0</tilted></_>
    <_>
      <rects>
        <_>
          10 18 5 6 -1.</_>
        <_>
          10 20 5 2 3.</_></rects>
      <tilted>0</tilted></_>
    <_>
      <rects>
        <_>
          11 2 6 8 -1.</_>
        <_>
          11 2 3 4 2.</_>
        <_>
          14 6 3 4 2.</_></rects>
      <tilted>0</tilted></_>
    <_>
      <rects>
        <_>
          11 6 8 15 -1.</_>
        <_>
          15 6 4 15 2.</_></rects>
      <tilted>0</tilted></_>
    <_>
      <rects>
        <_>
          12 10 2 1 -1.</_>
        <_>
          13 10 1 1 2.</_></rects>
      <tilted>0</tilted></_>
    <_>
      <rects>
        <_>
          12 20 8 4 -1.</_>
        <_>
          12 22 8 2 2.</_></rects>
      <tilted>0</tilted></_>
    <_>
      <rects>
        <_>
          13 0 8 6 -1.</_>
        <_>
          13 3 8 3 2.</_></rects>
      <tilted>0</tilted></_>
    <_>
      <rects>
        <_>
          13 6 1 2 -1.</_>
        <_>
          13 7 1 1 2.</_></rects>
      <tilted>0</tilted></_>
    <_>
      <rects>
        <_>
          13 12 6 9 -1.</_>
        <_>
          15 12 2 9 3.</_></rects>
      <tilted>0</tilted></_>
    <_>
      <rects>
        <_>
          19 12 2 1 -1.</_>
        <_>
          20 12 1 1 2.</_></rects>
      <tilted>0</tilted></_>
    <_>
      <rects>
        <_>
          20 11 1 2 -1.</_>
        <_>
          20 12 1 1 2.</_></rects>
      <tilted>0</tilted></_>
    <_>
      <rects>
        <_>
          21 9 1 2 -1.</_>
        <_>
          21 10 1 1 2.</_></rects>
      <tilted>0</tilted></_>
    <_>
      <rects>
        <_>
          22 4 2 14 -1.</_>
        <_>
          23 4 1 14 2.</_></rects>
      <tilted>0</tilted></_></features></cascade>
</opencv_storage>
