<?xml version="1.0"?>
<opencv_storage>
<cascade>
  <stageType>BOOST</stageType>
  <featureType>HAAR</featureType>
  <height>24</height>
  <width>18</width>
  <stageParams>
    <boostType>GAB</boostType>
    <minHitRate>9.9500000476837158e-01</minHitRate>
    <maxFalseAlarm>5.0000000000000000e-01</maxFalseAlarm>
    <weightTrimRate>9.4999998807907104e-01</weightTrimRate>
    <maxDepth>1</maxDepth>
    <maxWeakCount>100</maxWeakCount></stageParams>
  <featureParams>
    <maxCatCount>0</maxCatCount>
    <featSize>1</featSize>
    <mode>BASIC</mode></featureParams>
  <stageNum>12</stageNum>
  <stages>
    <!-- stage 0 -->
    <_>
      <maxWeakCount>3</maxWeakCount>
      <stageThreshold>-1.2889034748077393e+00</stageThreshold>
      <weakClassifiers>
        <_>
          <internalNodes>
            0 -1 10 -4.6055156737565994e-02</internalNodes>
          <leafValues>
            9.0588235855102539e-01 -9.6256154775619507e-01</leafValues></_>
        <_>
          <internalNodes>
            0 -1 20 -5.8719380758702755e-03</internalNodes>
          <leafValues>
            6.2743216753005981e-01 -9.3538767099380493e-01</leafValues></_>
        <_>
          <internalNodes>
            0 -1 1 4.5125171542167664e-02</internalNodes>
          <leafValues>
            -9.5377409458160400e-01 6.6625839471817017e-01</leafValues></_></weakClassifiers></_>
    <!-- stage 1 -->
    <_>
      <maxWeakCount>2</maxWeakCount>
      <stageThreshold>-6.0028344392776489e-01</stageThreshold>
      <weakClassifiers>
        <_>
          <internalNodes>
            0 -1 22 -3.9953753352165222e-02</internalNodes>
          <leafValues>
            6.3999998569488525e-01 -9.6399998664855957e-01</leafValues></_>
        <_>
          <internalNodes>
            0 -1 30 2.0542033598758280e-04</internalNodes>
          <leafValues>
            -9.9712812900543213e-01 3.6371654272079468e-01</leafValues></_></weakClassifiers></_>
    <!-- stage 2 -->
    <_>
      <maxWeakCount>3</maxWeakCount>
      <stageThreshold>-1.6493499279022217e+00</stageThreshold>
      <weakClassifiers>
        <_>
          <internalNodes>
            0 -1 24 1.7785155773162842e-01</internalNodes>
          <leafValues>
            -9.4251734018325806e-01 5.6043958663940430e-01</leafValues></_>
        <_>
          <internalNodes>
            0 -1 34 7.5845455285161734e-05</internalNodes>
          <leafValues>
            -9.6939855813980103e-01 2.3405107855796814e-01</leafValues></_>
        <_>
          <internalNodes>
            0 -1 26 2.2190205752849579e-02</internalNodes>
          <leafValues>
            -9.4088369607925415e-01 4.0565890073776245e-01</leafValues></_></weakClassifiers></_>
    <!-- stage 3 -->
    <_>
      <maxWeakCount>2</maxWeakCount>
      <stageThreshold>-6.5725368261337280e-01</stageThreshold>
      <weakClassifiers>
        <_>
          <internalNodes>
            0 -1 27 1.0780796408653259e-01</internalNodes>
          <leafValues>
            -9.0733593702316284e-01 6.2500000000000000e-01</leafValues></_>
        <_>
          <internalNodes>
            0 -1 4 -7.3747854912653565e-05</internalNodes>
          <leafValues>
            2.5008222460746765e-01 -1.</leafValues></_></weakClassifiers></_>
    <!-- stage 4 -->
    <_>
      <maxWeakCount>3</maxWeakCount>
      <stageThreshold>-1.4544897079467773e+00</stageThreshold>
      <weakClassifiers>
        <_>
          <internalNodes>
            0 -1 21 5.8252289891242981e-02</internalNodes>
          <leafValues>
            -9.2031097412109375e-01 6.6197180747985840e-01</leafValues></_>
        <_>
          <internalNodes>
            0 -1 2 5.4185964167118073e-02</internalNodes>
          <leafValues>
            -8.7889575958251953e-01 4.6101033687591553e-01</leafValues></_>
        <_>
          <internalNodes>
            0 -1 0 1.6709730029106140e-01</internalNodes>
          <leafValues>
            -9.7252887487411499e-01 3.4471696615219116e-01</leafValues></_></weakClassifiers></_>
    <!-- stage 5 -->
    <_>
      <maxWeakCount>3</maxWeakCount>
      <stageThreshold>-1.4605962038040161e+00</stageThreshold>
      <weakClassifiers>
        <_>
          <internalNodes>
            0 -1 25 7.2367578744888306e-02</internalNodes>
          <leafValues>
            -9.2504930496215820e-01 4.4186046719551086e-01</leafValues></_>
        <_>
          <internalNodes>
            0 -1 12 -6.5385669469833374e-02</internalNodes>
          <leafValues>
            4.6451935172080994e-01 -8.3781725168228149e-01</leafValues></_>
        <_>
          <internalNodes>
            0 -1 13 -4.3353524059057236e-02</internalNodes>
          <leafValues>
            3.0227038264274597e-01 -9.7921854257583618e-01</leafValues></_></weakClassifiers></_>
    <!-- stage 6 -->
    <_>
      <maxWeakCount>3</maxWeakCount>
      <stageThreshold>-1.5134978294372559e+00</stageThreshold>
      <weakClassifiers>
        <_>
          <internalNodes>
            0 -1 23 -1.4633341692388058e-02</internalNodes>
          <leafValues>
            4.3478259444236755e-01 -9.3253970146179199e-01</leafValues></_>
        <_>
          <internalNodes>
            0 -1 28 1.0243562050163746e-02</internalNodes>
          <leafValues>
            -8.7384784221649170e-01 3.1574419140815735e-01</leafValues></_>
        <_>
          <internalNodes>
            0 -1 33 7.6239943155087531e-05</internalNodes>
          <leafValues>
            -9.5526909828186035e-01 2.9288968443870544e-01</leafValues></_></weakClassifiers></_>
    <!-- stage 7 -->
    <_>
      <maxWeakCount>4</maxWeakCount>
      <stageThreshold>-2.2346436977386475e+00</stageThreshold>
      <weakClassifiers>
        <_>
          <internalNodes>
            0 -1 14 4.7428440302610397e-02</internalNodes>
          <leafValues>
            -9.3713164329528809e-01 6.5853661298751831e-01</leafValues></_>
        <_>
          <internalNodes>
            0 -1 15 -5.2536386996507645e-02</internalNodes>
          <leafValues>
            4.1199263930320740e-01 -8.7213897705078125e-01</leafValues></_>
        <_>
          <internalNodes>
            0 -1 17 -1.2114260345697403e-02</internalNodes>
          <leafValues>
            4.8448637127876282e-01 -8.0790776014328003e-01</leafValues></_>
        <_>
          <internalNodes>
            0 -1 6 1.9460859894752502e-01</internalNodes>
          <leafValues>
            -9.6114712953567505e-01 3.8253465294837952e-01</leafValues></_></weakClassifiers></_>
    <!-- stage 8 -->
    <_>
      <maxWeakCount>4</maxWeakCount>
      <stageThreshold>-2.1329052448272705e+00</stageThreshold>
      <weakClassifiers>
        <_>
          <internalNodes>
            0 -1 7 -2.6993392035365105e-02</internalNodes>
          <leafValues>
            8.8888889551162720e-01 -9.0630972385406494e-01</leafValues></_>
        <_>
          <internalNodes>
            0 -1 16 -1.0551534593105316e-02</internalNodes>
          <leafValues>
            3.6364191770553589e-01 -8.8366907835006714e-01</leafValues></_>
        <_>
          <internalNodes>
            0 -1 19 -7.6020625419914722e-03</internalNodes>
          <leafValues>
            4.4878730177879333e-01 -7.9799664020538330e-01</leafValues></_>
        <_>
          <internalNodes>
            0 -1 35 7.9526987974531949e-05</internalNodes>
          <leafValues>
            -9.1593801975250244e-01 4.5507031679153442e-01</leafValues></_></weakClassifiers></_>
    <!-- stage 9 -->
    <_>
      <maxWeakCount>3</maxWeakCount>
      <stageThreshold>-1.3461754322052002e+00</stageThreshold>
      <weakClassifiers>
        <_>
          <internalNodes>
            0 -1 18 5.9810414910316467e-02</internalNodes>
          <leafValues>
            -9.5532995462417603e-01 3.5652172565460205e-01</leafValues></_>
        <_>
          <internalNodes>
            0 -1 5 9.5994528383016586e-03</internalNodes>
          <leafValues>
            -8.6474925279617310e-01 5.7842224836349487e-01</leafValues></_>
        <_>
          <internalNodes>
            0 -1 3 -1.9053630530834198e-02</internalNodes>
          <leafValues>
            4.7390377521514893e-01 -9.5574009418487549e-01</leafValues></_></weakClassifiers></_>
    <!-- stage 10 -->
    <_>
      <maxWeakCount>3</maxWeakCount>
      <stageThreshold>-1.3291395902633667e+00</stageThreshold>
      <weakClassifiers>
        <_>
          <internalNodes>
            0 -1 9 -8.1803491339087486e-03</internalNodes>
          <leafValues>
            1. -9.1754555702209473e-01</leafValues></_>
        <_>
          <internalNodes>
            0 -1 8 1.6259149415418506e-03</internalNodes>
          <leafValues>
            -9.2332357168197632e-01 6.0530561208724976e-01</leafValues></_>
        <_>
          <internalNodes>
            0 -1 29 8.8562276214361191e-03</internalNodes>
          <leafValues>
            -8.8246911764144897e-01 5.1172947883605957e-01</leafValues></_></weakClassifiers></_>
    <!-- stage 11 -->
    <_>
      <maxWeakCount>3</maxWeakCount>
      <stageThreshold>-9.0195596218109131e-01</stageThreshold>
      <weakClassifiers>
        <_>
          <internalNodes>
            0 -1 31 -4.6317954547703266e-04</internalNodes>
          <leafValues>
            1. -9.7044336795806885e-01</leafValues></_>
        <_>
          <internalNodes>
            0 -1 11 5.1786601543426514e-03</internalNodes>
          <leafValues>
            -9.3151259422302246e-01 1.</leafValues></_>
        <_>
          <internalNodes>
            0 -1 32 3.7643520045094192e-05</internalNodes>
          <leafValues>
            -9.0153342485427856e-01 1.</leafValues></_></weakClassifiers></_></stages>
  <features>
    <_>
      <rects>
        <_>
          0 0 18 10 -1.</_>
        <_>
          6 0 6 10 3.</_></rects>
      <tilted>0</tilted></_>
    <_>
      <rects>
        <_>
          0 1 8 5 -1.</_>
        <_>
          4 1 4 5 2.</_></rects>
      <tilted>0</tilted></_>
    <_>
      <rects>
        <_>
          0 5 6 6 -1.</_>
        <_>
          3 5 3 6 2.</_></rects>
      <tilted>0</tilted></_>
    <_>
      <rects>
        <_>
          0 6 18 15 -1.</_>
        <_>
          0 11 18 5 3.</_></rects>
      <tilted>0</tilted></_>
    <_>
      <rects>
        <_>
          0 8 1 2 -1.</_>
        <_>
          0 9 1 1 2.</_></rects>
      <tilted>0</tilted></_>
    <_>
      <rects>
        <_>
          1 18 6 2 -1.</_>
        <_>
          3 18 2 2 3.</_></rects>
      <tilted>0</tilted></_>
    <_>
      <rects>
        <_>
          2 1 12 22 -1.</_>
        <_>
          8 1 6 22 2.</_></rects>
      <tilted>0</tilted></_>
    <_>
      <rects>
        <_>
          3 10 4 8 -1.</_>
        <_>
          3 10 2 4 2.</_>
        <_>
          5 14 2 4 2.</_></rects>
      <tilted>0</tilted></_>
    <_>
      <rects>
        <_>
          3 18 4 4 -1.</_>
        <_>
          3 18 2 2 2.</_>
        <_>
          5 20 2 2 2.</_></rects>
      <tilted>0</tilted></_>
    <_>
      <rects>
        <_>
          4 0 13 3 -1.</_>
        <_>
          4 1 13 1 3.</_></rects>
      <tilted>0</tilted></_>
    <_>
      <rects>
        <_>
          4 16 9 3 -1.</_>
        <_>
          7 16 3 3 3.</_></rects>
      <tilted>0</tilted></_>
    <_>
      <rects>
        <_>
          5 1 13 2 -1.</_>
        <_>
          5 2 13 1 2.</_></rects>
      <tilted>0</tilted></_>
    <_>
      <rects>
        <_>
          5 5 6 14 -1.</_>
        <_>
          7 5 2 14 3.</_></rects>
      <tilted>0</tilted></_>
    <_>
      <rects>
        <_>
          5 8 5 16 -1.</_>
        <_>
          5 16 5 8 2.</_></rects>
      <tilted>0</tilted></_>
    <_>
      <rects>
        <_>
          5 18 7 6 -1.</_>
        <_>
          5 20 7 2 3.</_></rects>
      <tilted>0</tilted></_>
    <_>
      <rects>
        <_>
          6 7 6 11 -1.</_>
        <_>
          8 7 2 11 3.</_></rects>
      <tilted>0</tilted></_>
    <_>
      <rects>
        <_>
          6 13 4 6 -1.</_>
        <_>
          6 15 4 2 3.</_></rects>
      <tilted>0</tilted></_>
    <_>
      <rects>
        <_>
          6 14 5 6 -1.</_>
        <_>
          6 16 5 2 3.</_></rects>
      <tilted>0</tilted></_>
    <_>
      <rects>
        <_>
          7 0 6 9 -1.</_>
        <_>
          7 3 6 3 3.</_></rects>
      <tilted>0</tilted></_>
    <_>
      <rects>
        <_>
          7 4 3 14 -1.</_>
        <_>
          8 4 1 14 3.</_></rects>
      <tilted>0</tilted></_>
    <_>
      <rects>
        <_>
          7 9 3 11 -1.</_>
        <_>
          8 9 1 11 3.</_></rects>
      <tilted>0</tilted></_>
    <_>
      <rects>
        <_>
          7 11 8 6 -1.</_>
        <_>
          7 11 4 3 2.</_>
        <_>
          11 14 4 3 2.</_></rects>
      <tilted>0</tilted></_>
    <_>
      <rects>
        <_>
          7 12 3 9 -1.</_>
        <_>
          7 15 3 3 3.</_></rects>
      <tilted>0</tilted></_>
    <_>
      <rects>
        <_>
          8 4 1 9 -1.</_>
        <_>
          8 7 1 3 3.</_></rects>
      <tilted>0</tilted></_>
    <_>
      <rects>
        <_>
          8 5 9 15 -1.</_>
        <_>
          11 5 3 15 3.</_></rects>
      <tilted>0</tilted></_>
    <_>
      <rects>
        <_>
          8 15 6 5 -1.</_>
        <_>
          11 15 3 5 2.</_></rects>
      <tilted>0</tilted></_>
    <_>
      <rects>
        <_>
          9 0 7 6 -1.</_>
        <_>
          9 3 7 3 2.</_></rects>
      <tilted>0</tilted></_>
    <_>
      <rects>
        <_>
          9 6 4 18 -1.</_>
        <_>
          11 6 2 18 2.</_></rects>
      <tilted>0</tilted></_>
    <_>
      <rects>
        <_>
          11 2 3 18 -1.</_>
        <_>
          12 2 1 18 3.</_></rects>
      <tilted>0</tilted></_>
    <_>
      <rects>
        <_>
          11 3 3 17 -1.</_>
        <_>
          12 3 1 17 3.</_></rects>
      <tilted>0</tilted></_>
    <_>
      <rects>
        <_>
          14 23 2 1 -1.</_>
        <_>
          15 23 1 1 2.</_></rects>
      <tilted>0</tilted></_>
    <_>
      <rects>
        <_>
          16 3 1 9 -1.</_>
        <_>
          16 6 1 3 3.</_></rects>
      <tilted>0</tilted></_>
    <_>
      <rects>
        <_>
          16 8 1 2 -1.</_>
        <_>
          16 9 1 1 2.</_></rects>
      <tilted>0</tilted></_>
    <_>
      <rects>
        <_>
          16 11 1 2 -1.</_>
        <_>
          16 12 1 1 2.</_></rects>
      <tilted>0</tilted></_>
    <_>
      <rects>
        <_>
          16 12 1 2 -1.</_>
        <_>
          16 13 1 1 2.</_></rects>
      <tilted>0</tilted></_>
    <_>
      <rects>
        <_>
          17 22 1 2 -1.</_>
        <_>
          17 23 1 1 2.</_></rects>
      <tilted>0</tilted></_></features></cascade>
</opencv_storage>
