<?xml version="1.0"?>
<opencv_storage>
<cascade>
  <stageType>BOOST</stageType>
  <featureType>HAAR</featureType>
  <height>24</height>
  <width>18</width>
  <stageParams>
    <boostType>GAB</boostType>
    <minHitRate>9.9500000476837158e-01</minHitRate>
    <maxFalseAlarm>5.0000000000000000e-01</maxFalseAlarm>
    <weightTrimRate>9.4999998807907104e-01</weightTrimRate>
    <maxDepth>1</maxDepth>
    <maxWeakCount>100</maxWeakCount></stageParams>
  <featureParams>
    <maxCatCount>0</maxCatCount>
    <featSize>1</featSize>
    <mode>BASIC</mode></featureParams>
  <stageNum>10</stageNum>
  <stages>
    <!-- stage 0 -->
    <_>
      <maxWeakCount>3</maxWeakCount>
      <stageThreshold>-1.2944549322128296e+00</stageThreshold>
      <weakClassifiers>
        <_>
          <internalNodes>
            0 -1 14 4.1054569184780121e-02</internalNodes>
          <leafValues>
            -9.5445543527603149e-01 7.5471699237823486e-01</leafValues></_>
        <_>
          <internalNodes>
            0 -1 21 -1.6311365365982056e-01</internalNodes>
          <leafValues>
            5.6540232896804810e-01 -9.6004402637481689e-01</leafValues></_>
        <_>
          <internalNodes>
            0 -1 3 1.0393621027469635e-01</internalNodes>
          <leafValues>
            -9.0540176630020142e-01 7.0416504144668579e-01</leafValues></_></weakClassifiers></_>
    <!-- stage 1 -->
    <_>
      <maxWeakCount>3</maxWeakCount>
      <stageThreshold>-1.3309015035629272e+00</stageThreshold>
      <weakClassifiers>
        <_>
          <internalNodes>
            0 -1 12 3.8340657949447632e-02</internalNodes>
          <leafValues>
            -9.2850244045257568e-01 9.5061731338500977e-01</leafValues></_>
        <_>
          <internalNodes>
            0 -1 16 -7.4534970335662365e-03</internalNodes>
          <leafValues>
            7.1360534429550171e-01 -9.1718012094497681e-01</leafValues></_>
        <_>
          <internalNodes>
            0 -1 20 1.7273887991905212e-01</internalNodes>
          <leafValues>
            -1. 5.1478093862533569e-01</leafValues></_></weakClassifiers></_>
    <!-- stage 2 -->
    <_>
      <maxWeakCount>3</maxWeakCount>
      <stageThreshold>-1.3039137125015259e+00</stageThreshold>
      <weakClassifiers>
        <_>
          <internalNodes>
            0 -1 8 -2.1015947684645653e-02</internalNodes>
          <leafValues>
            7.0454543828964233e-01 -9.2023348808288574e-01</leafValues></_>
        <_>
          <internalNodes>
            0 -1 7 -8.6031623184680939e-02</internalNodes>
          <leafValues>
            4.0372297167778015e-01 -9.3937420845031738e-01</leafValues></_>
        <_>
          <internalNodes>
            0 -1 15 3.6731131374835968e-02</internalNodes>
          <leafValues>
            -7.8740322589874268e-01 7.2491139173507690e-01</leafValues></_></weakClassifiers></_>
    <!-- stage 3 -->
    <_>
      <maxWeakCount>4</maxWeakCount>
      <stageThreshold>-2.1441321372985840e+00</stageThreshold>
      <weakClassifiers>
        <_>
          <internalNodes>
            0 -1 22 8.3428889513015747e-02</internalNodes>
          <leafValues>
            -9.3812376260757446e-01 4.9122807383537292e-01</leafValues></_>
        <_>
          <internalNodes>
            0 -1 6 1.8488179892301559e-02</internalNodes>
          <leafValues>
            -8.2234269380569458e-01 6.1226046085357666e-01</leafValues></_>
        <_>
          <internalNodes>
            0 -1 11 2.0328443497419357e-03</internalNodes>
          <leafValues>
            -8.6495172977447510e-01 4.9005180597305298e-01</leafValues></_>
        <_>
          <internalNodes>
            0 -1 27 1.5287965652532876e-05</internalNodes>
          <leafValues>
            -8.7371748685836792e-01 5.4522305727005005e-01</leafValues></_></weakClassifiers></_>
    <!-- stage 4 -->
    <_>
      <maxWeakCount>3</maxWeakCount>
      <stageThreshold>-1.1419075727462769e+00</stageThreshold>
      <weakClassifiers>
        <_>
          <internalNodes>
            0 -1 5 -6.1165153980255127e-02</internalNodes>
          <leafValues>
            4.4230768084526062e-01 -9.1897231340408325e-01</leafValues></_>
        <_>
          <internalNodes>
            0 -1 13 -5.4105203598737717e-02</internalNodes>
          <leafValues>
            8.2242894172668457e-01 -7.7390533685684204e-01</leafValues></_>
        <_>
          <internalNodes>
            0 -1 1 2.6377147436141968e-01</internalNodes>
          <leafValues>
            -8.1030988693237305e-01 6.4226388931274414e-01</leafValues></_></weakClassifiers></_>
    <!-- stage 5 -->
    <_>
      <maxWeakCount>3</maxWeakCount>
      <stageThreshold>-1.2129638195037842e+00</stageThreshold>
      <weakClassifiers>
        <_>
          <internalNodes>
            0 -1 18 -1.4152420684695244e-02</internalNodes>
          <leafValues>
            7.2602736949920654e-01 -8.9837008714675903e-01</leafValues></_>
        <_>
          <internalNodes>
            0 -1 19 1.6776881238911301e-05</internalNodes>
          <leafValues>
            -7.6189702749252319e-01 6.0278636217117310e-01</leafValues></_>
        <_>
          <internalNodes>
            0 -1 10 -1.4751533046364784e-02</internalNodes>
          <leafValues>
            4.6265435218811035e-01 -9.1738015413284302e-01</leafValues></_></weakClassifiers></_>
    <!-- stage 6 -->
    <_>
      <maxWeakCount>3</maxWeakCount>
      <stageThreshold>-1.2396875619888306e+00</stageThreshold>
      <weakClassifiers>
        <_>
          <internalNodes>
            0 -1 17 2.6088589429855347e-01</internalNodes>
          <leafValues>
            -8.8783270120620728e-01 7.8125000000000000e-01</leafValues></_>
        <_>
          <internalNodes>
            0 -1 2 1.0339871048927307e-01</internalNodes>
          <leafValues>
            -9.2859721183776855e-01 3.5290989279747009e-01</leafValues></_>
        <_>
          <internalNodes>
            0 -1 0 4.5553199946880341e-02</internalNodes>
          <leafValues>
            -7.0476484298706055e-01 6.3675069808959961e-01</leafValues></_></weakClassifiers></_>
    <!-- stage 7 -->
    <_>
      <maxWeakCount>3</maxWeakCount>
      <stageThreshold>-1.0466204881668091e+00</stageThreshold>
      <weakClassifiers>
        <_>
          <internalNodes>
            0 -1 23 -1.3090968132019043e-02</internalNodes>
          <leafValues>
            1. -8.9753317832946777e-01</leafValues></_>
        <_>
          <internalNodes>
            0 -1 25 1.5765249729156494e-02</internalNodes>
          <leafValues>
            -7.5241410732269287e-01 8.0640423297882080e-01</leafValues></_>
        <_>
          <internalNodes>
            0 -1 4 -9.3019321560859680e-02</internalNodes>
          <leafValues>
            6.0332679748535156e-01 -8.9649784564971924e-01</leafValues></_></weakClassifiers></_>
    <!-- stage 8 -->
    <_>
      <maxWeakCount>3</maxWeakCount>
      <stageThreshold>-1.2255157232284546e+00</stageThreshold>
      <weakClassifiers>
        <_>
          <internalNodes>
            0 -1 9 -6.3714355230331421e-02</internalNodes>
          <leafValues>
            1. -9.3610841035842896e-01</leafValues></_>
        <_>
          <internalNodes>
            0 -1 24 -1.4395909011363983e-01</internalNodes>
          <leafValues>
            7.5852507352828979e-01 -8.3302211761474609e-01</leafValues></_>
        <_>
          <internalNodes>
            0 -1 29 -3.1626624986529350e-03</internalNodes>
          <leafValues>
            -9.8912042379379272e-01 5.4361474514007568e-01</leafValues></_></weakClassifiers></_>
    <!-- stage 9 -->
    <_>
      <maxWeakCount>2</maxWeakCount>
      <stageThreshold>5.9464816004037857e-03</stageThreshold>
      <weakClassifiers>
        <_>
          <internalNodes>
            0 -1 26 1.7367518012179062e-05</internalNodes>
          <leafValues>
            -9.9401795864105225e-01 1.</leafValues></_>
        <_>
          <internalNodes>
            0 -1 28 1.8517277567298152e-05</internalNodes>
          <leafValues>
            -9.9405354261398315e-01 1.</leafValues></_></weakClassifiers></_></stages>
  <features>
    <_>
      <rects>
        <_>
          0 7 6 4 -1.</_>
        <_>
          3 7 3 4 2.</_></rects>
      <tilted>0</tilted></_>
    <_>
      <rects>
        <_>
          0 11 18 10 -1.</_>
        <_>
          6 11 6 10 3.</_></rects>
      <tilted>0</tilted></_>
    <_>
      <rects>
        <_>
          1 0 15 8 -1.</_>
        <_>
          1 4 15 4 2.</_></rects>
      <tilted>0</tilted></_>
    <_>
      <rects>
        <_>
          1 3 6 16 -1.</_>
        <_>
          4 3 3 16 2.</_></rects>
      <tilted>0</tilted></_>
    <_>
      <rects>
        <_>
          1 16 14 8 -1.</_>
        <_>
          1 20 14 4 2.</_></rects>
      <tilted>0</tilted></_>
    <_>
      <rects>
        <_>
          4 7 9 3 -1.</_>
        <_>
          7 7 3 3 3.</_></rects>
      <tilted>0</tilted></_>
    <_>
      <rects>
        <_>
          4 8 4 6 -1.</_>
        <_>
          4 8 2 3 2.</_>
        <_>
          6 11 2 3 2.</_></rects>
      <tilted>0</tilted></_>
    <_>
      <rects>
        <_>
          4 16 9 8 -1.</_>
        <_>
          4 20 9 4 2.</_></rects>
      <tilted>0</tilted></_>
    <_>
      <rects>
        <_>
          5 8 4 3 -1.</_>
        <_>
          7 8 2 3 2.</_></rects>
      <tilted>0</tilted></_>
    <_>
      <rects>
        <_>
          6 4 6 14 -1.</_>
        <_>
          8 4 2 14 3.</_></rects>
      <tilted>0</tilted></_>
    <_>
      <rects>
        <_>
          6 5 7 6 -1.</_>
        <_>
          6 7 7 2 3.</_></rects>
      <tilted>0</tilted></_>
    <_>
      <rects>
        <_>
          6 15 5 2 -1.</_>
        <_>
          6 16 5 1 2.</_></rects>
      <tilted>0</tilted></_>
    <_>
      <rects>
        <_>
          7 1 4 6 -1.</_>
        <_>
          7 3 4 2 3.</_></rects>
      <tilted>0</tilted></_>
    <_>
      <rects>
        <_>
          7 5 6 7 -1.</_>
        <_>
          9 5 2 7 3.</_></rects>
      <tilted>0</tilted></_>
    <_>
      <rects>
        <_>
          7 9 5 6 -1.</_>
        <_>
          7 11 5 2 3.</_></rects>
      <tilted>0</tilted></_>
    <_>
      <rects>
        <_>
          8 0 3 9 -1.</_>
        <_>
          8 3 3 3 3.</_></rects>
      <tilted>0</tilted></_>
    <_>
      <rects>
        <_>
          8 12 1 6 -1.</_>
        <_>
          8 14 1 2 3.</_></rects>
      <tilted>0</tilted></_>
    <_>
      <rects>
        <_>
          9 5 9 13 -1.</_>
        <_>
          12 5 3 13 3.</_></rects>
      <tilted>0</tilted></_>
    <_>
      <rects>
        <_>
          9 16 4 4 -1.</_>
        <_>
          9 16 2 2 2.</_>
        <_>
          11 18 2 2 2.</_></rects>
      <tilted>0</tilted></_>
    <_>
      <rects>
        <_>
          9 19 1 2 -1.</_>
        <_>
          9 20 1 1 2.</_></rects>
      <tilted>0</tilted></_>
    <_>
      <rects>
        <_>
          10 0 7 24 -1.</_>
        <_>
          10 8 7 8 3.</_></rects>
      <tilted>0</tilted></_>
    <_>
      <rects>
        <_>
          10 2 8 20 -1.</_>
        <_>
          14 2 4 20 2.</_></rects>
      <tilted>0</tilted></_>
    <_>
      <rects>
        <_>
          10 6 6 11 -1.</_>
        <_>
          12 6 2 11 3.</_></rects>
      <tilted>0</tilted></_>
    <_>
      <rects>
        <_>
          10 15 4 4 -1.</_>
        <_>
          10 15 2 2 2.</_>
        <_>
          12 17 2 2 2.</_></rects>
      <tilted>0</tilted></_>
    <_>
      <rects>
        <_>
          11 3 6 15 -1.</_>
        <_>
          14 3 3 15 2.</_></rects>
      <tilted>0</tilted></_>
    <_>
      <rects>
        <_>
          11 6 3 5 -1.</_>
        <_>
          12 6 1 5 3.</_></rects>
      <tilted>0</tilted></_>
    <_>
      <rects>
        <_>
          12 6 5 2 -1.</_>
        <_>
          12 7 5 1 2.</_></rects>
      <tilted>0</tilted></_>
    <_>
      <rects>
        <_>
          13 4 1 2 -1.</_>
        <_>
          13 5 1 1 2.</_></rects>
      <tilted>0</tilted></_>
    <_>
      <rects>
        <_>
          13 6 4 2 -1.</_>
        <_>
          13 7 4 1 2.</_></rects>
      <tilted>0</tilted></_>
    <_>
      <rects>
        <_>
          17 8 1 16 -1.</_>
        <_>
          17 16 1 8 2.</_></rects>
      <tilted>0</tilted></_></features></cascade>
</opencv_storage>
