<?xml version="1.0"?>
<opencv_storage>
<cascade>
  <stageType>BOOST</stageType>
  <featureType>HAAR</featureType>
  <height>24</height>
  <width>24</width>
  <stageParams>
    <boostType>GAB</boostType>
    <minHitRate>9.9500000476837158e-01</minHitRate>
    <maxFalseAlarm>5.0000000000000000e-01</maxFalseAlarm>
    <weightTrimRate>9.4999998807907104e-01</weightTrimRate>
    <maxDepth>1</maxDepth>
    <maxWeakCount>100</maxWeakCount></stageParams>
  <featureParams>
    <maxCatCount>0</maxCatCount>
    <featSize>1</featSize>
    <mode>BASIC</mode></featureParams>
  <stageNum>10</stageNum>
  <stages>
    <!-- stage 0 -->
    <_>
      <maxWeakCount>2</maxWeakCount>
      <stageThreshold>-2.0510707795619965e-01</stageThreshold>
      <weakClassifiers>
        <_>
          <internalNodes>
            0 -1 15 7.1548141539096832e-02</internalNodes>
          <leafValues>
            -9.7208374738693237e-01 8.8832485675811768e-01</leafValues></_>
        <_>
          <internalNodes>
            0 -1 11 -3.3602524548768997e-02</internalNodes>
          <leafValues>
            7.6697665452957153e-01 -9.8310828208923340e-01</leafValues></_></weakClassifiers></_>
    <!-- stage 1 -->
    <_>
      <maxWeakCount>3</maxWeakCount>
      <stageThreshold>-1.2461915016174316e+00</stageThreshold>
      <weakClassifiers>
        <_>
          <internalNodes>
            0 -1 12 -4.3247133493423462e-02</internalNodes>
          <leafValues>
            8.9583331346511841e-01 -9.6428573131561279e-01</leafValues></_>
        <_>
          <internalNodes>
            0 -1 16 -5.0097396597266197e-03</internalNodes>
          <leafValues>
            7.4636954069137573e-01 -9.6171003580093384e-01</leafValues></_>
        <_>
          <internalNodes>
            0 -1 25 -6.4977839589118958e-02</internalNodes>
          <leafValues>
            6.7980420589447021e-01 -9.6871620416641235e-01</leafValues></_></weakClassifiers></_>
    <!-- stage 2 -->
    <_>
      <maxWeakCount>3</maxWeakCount>
      <stageThreshold>-1.3075929880142212e+00</stageThreshold>
      <weakClassifiers>
        <_>
          <internalNodes>
            0 -1 23 1.9189201295375824e-02</internalNodes>
          <leafValues>
            -9.4029849767684937e-01 7.4358975887298584e-01</leafValues></_>
        <_>
          <internalNodes>
            0 -1 17 9.7021022811532021e-03</internalNodes>
          <leafValues>
            -8.8537418842315674e-01 5.5629783868789673e-01</leafValues></_>
        <_>
          <internalNodes>
            0 -1 4 8.5773527622222900e-02</internalNodes>
          <leafValues>
            -9.1640639305114746e-01 5.1807969808578491e-01</leafValues></_></weakClassifiers></_>
    <!-- stage 3 -->
    <_>
      <maxWeakCount>3</maxWeakCount>
      <stageThreshold>-1.2141622304916382e+00</stageThreshold>
      <weakClassifiers>
        <_>
          <internalNodes>
            0 -1 18 -7.6187908649444580e-02</internalNodes>
          <leafValues>
            6.9411766529083252e-01 -8.9126211404800415e-01</leafValues></_>
        <_>
          <internalNodes>
            0 -1 20 7.3964387178421021e-02</internalNodes>
          <leafValues>
            -8.2759881019592285e-01 7.0200681686401367e-01</leafValues></_>
        <_>
          <internalNodes>
            0 -1 5 8.7886586785316467e-02</internalNodes>
          <leafValues>
            -9.7452861070632935e-01 5.0469863414764404e-01</leafValues></_></weakClassifiers></_>
    <!-- stage 4 -->
    <_>
      <maxWeakCount>3</maxWeakCount>
      <stageThreshold>-1.1004394292831421e+00</stageThreshold>
      <weakClassifiers>
        <_>
          <internalNodes>
            0 -1 2 1.8396998941898346e-01</internalNodes>
          <leafValues>
            -9.1015625000000000e-01 7.5000000000000000e-01</leafValues></_>
        <_>
          <internalNodes>
            0 -1 24 -1.3835674151778221e-02</internalNodes>
          <leafValues>
            5.1093876361846924e-01 -8.6916351318359375e-01</leafValues></_>
        <_>
          <internalNodes>
            0 -1 26 1.3969036750495434e-02</internalNodes>
          <leafValues>
            -7.0122194290161133e-01 8.2208365201950073e-01</leafValues></_></weakClassifiers></_>
    <!-- stage 5 -->
    <_>
      <maxWeakCount>2</maxWeakCount>
      <stageThreshold>-6.5634709596633911e-01</stageThreshold>
      <weakClassifiers>
        <_>
          <internalNodes>
            0 -1 19 -9.1301709413528442e-02</internalNodes>
          <leafValues>
            3.2394367456436157e-01 -8.8044577836990356e-01</leafValues></_>
        <_>
          <internalNodes>
            0 -1 0 1.8284787237644196e-01</internalNodes>
          <leafValues>
            -9.8029077053070068e-01 3.3115684986114502e-01</leafValues></_></weakClassifiers></_>
    <!-- stage 6 -->
    <_>
      <maxWeakCount>3</maxWeakCount>
      <stageThreshold>-1.4120891094207764e+00</stageThreshold>
      <weakClassifiers>
        <_>
          <internalNodes>
            0 -1 21 1.5692567825317383e-01</internalNodes>
          <leafValues>
            -8.9960628747940063e-01 6.1956518888473511e-01</leafValues></_>
        <_>
          <internalNodes>
            0 -1 14 -1.1730441656254698e-05</internalNodes>
          <leafValues>
            5.7095044851303101e-01 -8.8107776641845703e-01</leafValues></_>
        <_>
          <internalNodes>
            0 -1 1 1.2134101986885071e-01</internalNodes>
          <leafValues>
            -1. 3.6859497427940369e-01</leafValues></_></weakClassifiers></_>
    <!-- stage 7 -->
    <_>
      <maxWeakCount>4</maxWeakCount>
      <stageThreshold>-1.6265578269958496e+00</stageThreshold>
      <weakClassifiers>
        <_>
          <internalNodes>
            0 -1 13 -9.6787899732589722e-02</internalNodes>
          <leafValues>
            5.5000001192092896e-01 -9.1000002622604370e-01</leafValues></_>
        <_>
          <internalNodes>
            0 -1 6 9.3650072813034058e-02</internalNodes>
          <leafValues>
            -6.5632450580596924e-01 8.0856096744537354e-01</leafValues></_>
        <_>
          <internalNodes>
            0 -1 8 -1.2631830573081970e-01</internalNodes>
          <leafValues>
            8.8844925165176392e-01 -6.1624568700790405e-01</leafValues></_>
        <_>
          <internalNodes>
            0 -1 28 1.2197655451018363e-05</internalNodes>
          <leafValues>
            -9.0887308120727539e-01 5.6539314985275269e-01</leafValues></_></weakClassifiers></_>
    <!-- stage 8 -->
    <_>
      <maxWeakCount>4</maxWeakCount>
      <stageThreshold>-1.0461280345916748e+00</stageThreshold>
      <weakClassifiers>
        <_>
          <internalNodes>
            0 -1 10 -1.0121230781078339e-01</internalNodes>
          <leafValues>
            7.7027028799057007e-01 -8.6882126331329346e-01</leafValues></_>
        <_>
          <internalNodes>
            0 -1 9 -2.4101983755826950e-02</internalNodes>
          <leafValues>
            4.3321296572685242e-01 -8.1401842832565308e-01</leafValues></_>
        <_>
          <internalNodes>
            0 -1 29 -1.2159171092207544e-05</internalNodes>
          <leafValues>
            4.0203246474266052e-01 -9.7490078210830688e-01</leafValues></_>
        <_>
          <internalNodes>
            0 -1 3 -6.9248631596565247e-02</internalNodes>
          <leafValues>
            -9.6197134256362915e-01 3.6438104510307312e-01</leafValues></_></weakClassifiers></_>
    <!-- stage 9 -->
    <_>
      <maxWeakCount>3</maxWeakCount>
      <stageThreshold>-1.1187993288040161e+00</stageThreshold>
      <weakClassifiers>
        <_>
          <internalNodes>
            0 -1 22 4.6188607811927795e-02</internalNodes>
          <leafValues>
            -8.9035916328430176e-01 1.</leafValues></_>
        <_>
          <internalNodes>
            0 -1 27 -7.5412474572658539e-02</internalNodes>
          <leafValues>
            7.6572191715240479e-01 -7.6873469352722168e-01</leafValues></_>
        <_>
          <internalNodes>
            0 -1 7 3.3220864832401276e-02</internalNodes>
          <leafValues>
            -1. 5.4029452800750732e-01</leafValues></_></weakClassifiers></_></stages>
  <features>
    <_>
      <rects>
        <_>
          0 0 14 24 -1.</_>
        <_>
          0 8 14 8 3.</_></rects>
      <tilted>0</tilted></_>
    <_>
      <rects>
        <_>
          0 1 24 12 -1.</_>
        <_>
          8 1 8 12 3.</_></rects>
      <tilted>0</tilted></_>
    <_>
      <rects>
        <_>
          0 6 12 13 -1.</_>
        <_>
          4 6 4 13 3.</_></rects>
      <tilted>0</tilted></_>
    <_>
      <rects>
        <_>
          0 7 20 14 -1.</_>
        <_>
          0 14 20 7 2.</_></rects>
      <tilted>0</tilted></_>
    <_>
      <rects>
        <_>
          0 19 24 4 -1.</_>
        <_>
          8 19 8 4 3.</_></rects>
      <tilted>0</tilted></_>
    <_>
      <rects>
        <_>
          2 2 12 18 -1.</_>
        <_>
          2 8 12 6 3.</_></rects>
      <tilted>0</tilted></_>
    <_>
      <rects>
        <_>
          2 14 12 6 -1.</_>
        <_>
          6 14 4 6 3.</_></rects>
      <tilted>0</tilted></_>
    <_>
      <rects>
        <_>
          4 8 20 16 -1.</_>
        <_>
          4 8 10 8 2.</_>
        <_>
          14 16 10 8 2.</_></rects>
      <tilted>0</tilted></_>
    <_>
      <rects>
        <_>
          4 9 12 11 -1.</_>
        <_>
          8 9 4 11 3.</_></rects>
      <tilted>0</tilted></_>
    <_>
      <rects>
        <_>
          4 12 13 6 -1.</_>
        <_>
          4 14 13 2 3.</_></rects>
      <tilted>0</tilted></_>
    <_>
      <rects>
        <_>
          5 7 8 13 -1.</_>
        <_>
          9 7 4 13 2.</_></rects>
      <tilted>0</tilted></_>
    <_>
      <rects>
        <_>
          5 20 15 4 -1.</_>
        <_>
          5 22 15 2 2.</_></rects>
      <tilted>0</tilted></_>
    <_>
      <rects>
        <_>
          6 14 12 4 -1.</_>
        <_>
          10 14 4 4 3.</_></rects>
      <tilted>0</tilted></_>
    <_>
      <rects>
        <_>
          7 5 9 15 -1.</_>
        <_>
          10 5 3 15 3.</_></rects>
      <tilted>0</tilted></_>
    <_>
      <rects>
        <_>
          7 8 1 2 -1.</_>
        <_>
          7 9 1 1 2.</_></rects>
      <tilted>0</tilted></_>
    <_>
      <rects>
        <_>
          7 8 9 9 -1.</_>
        <_>
          7 11 9 3 3.</_></rects>
      <tilted>0</tilted></_>
    <_>
      <rects>
        <_>
          8 7 12 2 -1.</_>
        <_>
          8 8 12 1 2.</_></rects>
      <tilted>0</tilted></_>
    <_>
      <rects>
        <_>
          8 11 11 3 -1.</_>
        <_>
          8 12 11 1 3.</_></rects>
      <tilted>0</tilted></_>
    <_>
      <rects>
        <_>
          8 13 9 7 -1.</_>
        <_>
          11 13 3 7 3.</_></rects>
      <tilted>0</tilted></_>
    <_>
      <rects>
        <_>
          9 4 7 9 -1.</_>
        <_>
          9 7 7 3 3.</_></rects>
      <tilted>0</tilted></_>
    <_>
      <rects>
        <_>
          11 1 9 9 -1.</_>
        <_>
          11 4 9 3 3.</_></rects>
      <tilted>0</tilted></_>
    <_>
      <rects>
        <_>
          11 5 12 13 -1.</_>
        <_>
          15 5 4 13 3.</_></rects>
      <tilted>0</tilted></_>
    <_>
      <rects>
        <_>
          11 10 10 6 -1.</_>
        <_>
          11 10 5 3 2.</_>
        <_>
          16 13 5 3 2.</_></rects>
      <tilted>0</tilted></_>
    <_>
      <rects>
        <_>
          11 11 8 4 -1.</_>
        <_>
          11 11 4 2 2.</_>
        <_>
          15 13 4 2 2.</_></rects>
      <tilted>0</tilted></_>
    <_>
      <rects>
        <_>
          11 18 8 4 -1.</_>
        <_>
          11 18 4 2 2.</_>
        <_>
          15 20 4 2 2.</_></rects>
      <tilted>0</tilted></_>
    <_>
      <rects>
        <_>
          14 3 10 12 -1.</_>
        <_>
          19 3 5 12 2.</_></rects>
      <tilted>0</tilted></_>
    <_>
      <rects>
        <_>
          16 2 1 9 -1.</_>
        <_>
          16 5 1 3 3.</_></rects>
      <tilted>0</tilted></_>
    <_>
      <rects>
        <_>
          16 4 6 17 -1.</_>
        <_>
          19 4 3 17 2.</_></rects>
      <tilted>0</tilted></_>
    <_>
      <rects>
        <_>
          19 15 4 3 -1.</_>
        <_>
          19 16 4 1 3.</_></rects>
      <tilted>0</tilted></_>
    <_>
      <rects>
        <_>
          19 21 4 2 -1.</_>
        <_>
          19 22 4 1 2.</_></rects>
      <tilted>0</tilted></_></features></cascade>
</opencv_storage>
