<?xml version="1.0"?>
<opencv_storage>
<cascade>
  <stageType>BOOST</stageType>
  <featureType>HAAR</featureType>
  <height>24</height>
  <width>18</width>
  <stageParams>
    <boostType>GAB</boostType>
    <minHitRate>9.9500000476837158e-01</minHitRate>
    <maxFalseAlarm>5.0000000000000000e-01</maxFalseAlarm>
    <weightTrimRate>9.4999998807907104e-01</weightTrimRate>
    <maxDepth>1</maxDepth>
    <maxWeakCount>100</maxWeakCount></stageParams>
  <featureParams>
    <maxCatCount>0</maxCatCount>
    <featSize>1</featSize>
    <mode>BASIC</mode></featureParams>
  <stageNum>8</stageNum>
  <stages>
    <!-- stage 0 -->
    <_>
      <maxWeakCount>3</maxWeakCount>
      <stageThreshold>-1.2884188890457153e+00</stageThreshold>
      <weakClassifiers>
        <_>
          <internalNodes>
            0 -1 17 2.7626339346170425e-02</internalNodes>
          <leafValues>
            -9.8187309503555298e-01 7.0093458890914917e-01</leafValues></_>
        <_>
          <internalNodes>
            0 -1 23 -1.1407937854528427e-01</internalNodes>
          <leafValues>
            6.6237014532089233e-01 -9.4359487295150757e-01</leafValues></_>
        <_>
          <internalNodes>
            0 -1 22 -5.3826440125703812e-03</internalNodes>
          <leafValues>
            6.3704919815063477e-01 -9.2800688743591309e-01</leafValues></_></weakClassifiers></_>
    <!-- stage 1 -->
    <_>
      <maxWeakCount>3</maxWeakCount>
      <stageThreshold>-9.3568724393844604e-01</stageThreshold>
      <weakClassifiers>
        <_>
          <internalNodes>
            0 -1 1 1.9050316512584686e-01</internalNodes>
          <leafValues>
            -9.5280236005783081e-01 8.3132529258728027e-01</leafValues></_>
        <_>
          <internalNodes>
            0 -1 8 -7.4731796979904175e-02</internalNodes>
          <leafValues>
            8.8133549690246582e-01 -8.4076911211013794e-01</leafValues></_>
        <_>
          <internalNodes>
            0 -1 0 2.1727617084980011e-01</internalNodes>
          <leafValues>
            -8.5486155748367310e-01 8.5788416862487793e-01</leafValues></_></weakClassifiers></_>
    <!-- stage 2 -->
    <_>
      <maxWeakCount>3</maxWeakCount>
      <stageThreshold>-1.4871803522109985e+00</stageThreshold>
      <weakClassifiers>
        <_>
          <internalNodes>
            0 -1 12 1.2076386809349060e-01</internalNodes>
          <leafValues>
            -9.5185554027557373e-01 4.7572815418243408e-01</leafValues></_>
        <_>
          <internalNodes>
            0 -1 11 6.0795359313488007e-02</internalNodes>
          <leafValues>
            -9.5355057716369629e-01 3.8777723908424377e-01</leafValues></_>
        <_>
          <internalNodes>
            0 -1 6 -6.0800999402999878e-02</internalNodes>
          <leafValues>
            5.1479411125183105e-01 -9.2310196161270142e-01</leafValues></_></weakClassifiers></_>
    <!-- stage 3 -->
    <_>
      <maxWeakCount>3</maxWeakCount>
      <stageThreshold>-1.3850995302200317e+00</stageThreshold>
      <weakClassifiers>
        <_>
          <internalNodes>
            0 -1 20 4.9169547855854034e-02</internalNodes>
          <leafValues>
            -9.2179864645004272e-01 5.5844157934188843e-01</leafValues></_>
        <_>
          <internalNodes>
            0 -1 15 7.4347876012325287e-02</internalNodes>
          <leafValues>
            -8.9271020889282227e-01 5.2297580242156982e-01</leafValues></_>
        <_>
          <internalNodes>
            0 -1 4 -1.6026044249883853e-05</internalNodes>
          <leafValues>
            4.2940929532051086e-01 -9.4913423061370850e-01</leafValues></_></weakClassifiers></_>
    <!-- stage 4 -->
    <_>
      <maxWeakCount>3</maxWeakCount>
      <stageThreshold>-1.4948334693908691e+00</stageThreshold>
      <weakClassifiers>
        <_>
          <internalNodes>
            0 -1 18 2.4998784065246582e-02</internalNodes>
          <leafValues>
            -9.1860467195510864e-01 7.0588237047195435e-01</leafValues></_>
        <_>
          <internalNodes>
            0 -1 19 -1.0282410308718681e-02</internalNodes>
          <leafValues>
            3.5179281234741211e-01 -9.1261130571365356e-01</leafValues></_>
        <_>
          <internalNodes>
            0 -1 13 -4.1593857109546661e-02</internalNodes>
          <leafValues>
            3.3638253808021545e-01 -9.9574983119964600e-01</leafValues></_></weakClassifiers></_>
    <!-- stage 5 -->
    <_>
      <maxWeakCount>3</maxWeakCount>
      <stageThreshold>-1.1705002784729004e+00</stageThreshold>
      <weakClassifiers>
        <_>
          <internalNodes>
            0 -1 7 -1.9574724137783051e-02</internalNodes>
          <leafValues>
            8.0000001192092896e-01 -9.2815536260604858e-01</leafValues></_>
        <_>
          <internalNodes>
            0 -1 10 -2.3582484573125839e-02</internalNodes>
          <leafValues>
            9.8074769973754883e-01 -8.1881016492843628e-01</leafValues></_>
        <_>
          <internalNodes>
            0 -1 21 3.4613902680575848e-03</internalNodes>
          <leafValues>
            -9.2338812351226807e-01 5.7646518945693970e-01</leafValues></_></weakClassifiers></_>
    <!-- stage 6 -->
    <_>
      <maxWeakCount>4</maxWeakCount>
      <stageThreshold>-2.0732107162475586e+00</stageThreshold>
      <weakClassifiers>
        <_>
          <internalNodes>
            0 -1 3 -6.7533157765865326e-02</internalNodes>
          <leafValues>
            7.7777779102325439e-01 -9.2996108531951904e-01</leafValues></_>
        <_>
          <internalNodes>
            0 -1 5 -1.6026044249883853e-05</internalNodes>
          <leafValues>
            3.5009559988975525e-01 -9.7170311212539673e-01</leafValues></_>
        <_>
          <internalNodes>
            0 -1 16 1.8594169989228249e-02</internalNodes>
          <leafValues>
            -8.1639665365219116e-01 6.6700345277786255e-01</leafValues></_>
        <_>
          <internalNodes>
            0 -1 2 -1.6592144966125488e-02</internalNodes>
          <leafValues>
            6.4485013484954834e-01 -9.6036404371261597e-01</leafValues></_></weakClassifiers></_>
    <!-- stage 7 -->
    <_>
      <maxWeakCount>3</maxWeakCount>
      <stageThreshold>-9.4492143392562866e-01</stageThreshold>
      <weakClassifiers>
        <_>
          <internalNodes>
            0 -1 9 -1.6554951798752882e-05</internalNodes>
          <leafValues>
            1. -9.9004977941513062e-01</leafValues></_>
        <_>
          <internalNodes>
            0 -1 14 -4.8333283513784409e-02</internalNodes>
          <leafValues>
            1. -9.5487171411514282e-01</leafValues></_>
        <_>
          <internalNodes>
            0 -1 24 -4.7497432678937912e-03</internalNodes>
          <leafValues>
            -9.2320978641510010e-01 1.</leafValues></_></weakClassifiers></_></stages>
  <features>
    <_>
      <rects>
        <_>
          0 4 8 17 -1.</_>
        <_>
          4 4 4 17 2.</_></rects>
      <tilted>0</tilted></_>
    <_>
      <rects>
        <_>
          0 6 9 13 -1.</_>
        <_>
          3 6 3 13 3.</_></rects>
      <tilted>0</tilted></_>
    <_>
      <rects>
        <_>
          2 12 10 6 -1.</_>
        <_>
          2 14 10 2 3.</_></rects>
      <tilted>0</tilted></_>
    <_>
      <rects>
        <_>
          3 7 12 8 -1.</_>
        <_>
          7 7 4 8 3.</_></rects>
      <tilted>0</tilted></_>
    <_>
      <rects>
        <_>
          3 15 1 2 -1.</_>
        <_>
          3 16 1 1 2.</_></rects>
      <tilted>0</tilted></_>
    <_>
      <rects>
        <_>
          3 16 1 2 -1.</_>
        <_>
          3 17 1 1 2.</_></rects>
      <tilted>0</tilted></_>
    <_>
      <rects>
        <_>
          3 18 15 6 -1.</_>
        <_>
          3 21 15 3 2.</_></rects>
      <tilted>0</tilted></_>
    <_>
      <rects>
        <_>
          4 3 4 6 -1.</_>
        <_>
          4 3 2 3 2.</_>
        <_>
          6 6 2 3 2.</_></rects>
      <tilted>0</tilted></_>
    <_>
      <rects>
        <_>
          4 14 9 4 -1.</_>
        <_>
          7 14 3 4 3.</_></rects>
      <tilted>0</tilted></_>
    <_>
      <rects>
        <_>
          4 16 1 2 -1.</_>
        <_>
          4 17 1 1 2.</_></rects>
      <tilted>0</tilted></_>
    <_>
      <rects>
        <_>
          5 4 4 6 -1.</_>
        <_>
          5 4 2 3 2.</_>
        <_>
          7 7 2 3 2.</_></rects>
      <tilted>0</tilted></_>
    <_>
      <rects>
        <_>
          5 8 6 9 -1.</_>
        <_>
          5 11 6 3 3.</_></rects>
      <tilted>0</tilted></_>
    <_>
      <rects>
        <_>
          6 1 9 9 -1.</_>
        <_>
          6 4 9 3 3.</_></rects>
      <tilted>0</tilted></_>
    <_>
      <rects>
        <_>
          6 10 12 3 -1.</_>
        <_>
          12 10 6 3 2.</_></rects>
      <tilted>0</tilted></_>
    <_>
      <rects>
        <_>
          7 6 6 6 -1.</_>
        <_>
          7 8 6 2 3.</_></rects>
      <tilted>0</tilted></_>
    <_>
      <rects>
        <_>
          8 0 6 8 -1.</_>
        <_>
          8 4 6 4 2.</_></rects>
      <tilted>0</tilted></_>
    <_>
      <rects>
        <_>
          8 5 10 6 -1.</_>
        <_>
          8 5 5 3 2.</_>
        <_>
          13 8 5 3 2.</_></rects>
      <tilted>0</tilted></_>
    <_>
      <rects>
        <_>
          8 9 3 6 -1.</_>
        <_>
          8 11 3 2 3.</_></rects>
      <tilted>0</tilted></_>
    <_>
      <rects>
        <_>
          8 18 2 6 -1.</_>
        <_>
          8 20 2 2 3.</_></rects>
      <tilted>0</tilted></_>
    <_>
      <rects>
        <_>
          9 6 1 6 -1.</_>
        <_>
          9 8 1 2 3.</_></rects>
      <tilted>0</tilted></_>
    <_>
      <rects>
        <_>
          9 10 6 6 -1.</_>
        <_>
          9 10 3 3 2.</_>
        <_>
          12 13 3 3 2.</_></rects>
      <tilted>0</tilted></_>
    <_>
      <rects>
        <_>
          10 5 8 3 -1.</_>
        <_>
          10 6 8 1 3.</_></rects>
      <tilted>0</tilted></_>
    <_>
      <rects>
        <_>
          10 6 1 6 -1.</_>
        <_>
          10 8 1 2 3.</_></rects>
      <tilted>0</tilted></_>
    <_>
      <rects>
        <_>
          12 4 6 18 -1.</_>
        <_>
          15 4 3 18 2.</_></rects>
      <tilted>0</tilted></_>
    <_>
      <rects>
        <_>
          16 6 2 12 -1.</_>
        <_>
          16 10 2 4 3.</_></rects>
      <tilted>0</tilted></_></features></cascade>
</opencv_storage>
