<?xml version="1.0"?>
<opencv_storage>
<cascade>
  <stageType>BOOST</stageType>
  <featureType>HAAR</featureType>
  <height>24</height>
  <width>24</width>
  <stageParams>
    <boostType>GAB</boostType>
    <minHitRate>9.9500000476837158e-01</minHitRate>
    <maxFalseAlarm>5.0000000000000000e-01</maxFalseAlarm>
    <weightTrimRate>9.4999998807907104e-01</weightTrimRate>
    <maxDepth>1</maxDepth>
    <maxWeakCount>100</maxWeakCount></stageParams>
  <featureParams>
    <maxCatCount>0</maxCatCount>
    <featSize>1</featSize>
    <mode>BASIC</mode></featureParams>
  <stageNum>12</stageNum>
  <stages>
    <!-- stage 0 -->
    <_>
      <maxWeakCount>3</maxWeakCount>
      <stageThreshold>-1.3013626337051392e+00</stageThreshold>
      <weakClassifiers>
        <_>
          <internalNodes>
            0 -1 16 -9.4377860426902771e-02</internalNodes>
          <leafValues>
            8.8349515199661255e-01 -9.6636992692947388e-01</leafValues></_>
        <_>
          <internalNodes>
            0 -1 0 1.8192659318447113e-01</internalNodes>
          <leafValues>
            -9.7979247570037842e-01 7.1044421195983887e-01</leafValues></_>
        <_>
          <internalNodes>
            0 -1 19 9.8408177495002747e-02</internalNodes>
          <leafValues>
            -9.3359780311584473e-01 6.4479976892471313e-01</leafValues></_></weakClassifiers></_>
    <!-- stage 1 -->
    <_>
      <maxWeakCount>3</maxWeakCount>
      <stageThreshold>-1.3304839134216309e+00</stageThreshold>
      <weakClassifiers>
        <_>
          <internalNodes>
            0 -1 34 -1.3892617821693420e-01</internalNodes>
          <leafValues>
            8.1308412551879883e-01 -9.6623635292053223e-01</leafValues></_>
        <_>
          <internalNodes>
            0 -1 7 1.0221491754055023e-01</internalNodes>
          <leafValues>
            -8.8422811031341553e-01 8.5539084672927856e-01</leafValues></_>
        <_>
          <internalNodes>
            0 -1 22 -6.7252203822135925e-02</internalNodes>
          <leafValues>
            5.1998060941696167e-01 -9.9744707345962524e-01</leafValues></_></weakClassifiers></_>
    <!-- stage 2 -->
    <_>
      <maxWeakCount>4</maxWeakCount>
      <stageThreshold>-2.0063018798828125e+00</stageThreshold>
      <weakClassifiers>
        <_>
          <internalNodes>
            0 -1 25 1.9111402332782745e-02</internalNodes>
          <leafValues>
            -9.0786945819854736e-01 8.3333331346511841e-01</leafValues></_>
        <_>
          <internalNodes>
            0 -1 24 7.4156329035758972e-02</internalNodes>
          <leafValues>
            -9.3246614933013916e-01 5.0787043571472168e-01</leafValues></_>
        <_>
          <internalNodes>
            0 -1 17 -2.1896481513977051e-02</internalNodes>
          <leafValues>
            5.1335847377777100e-01 -8.4938800334930420e-01</leafValues></_>
        <_>
          <internalNodes>
            0 -1 23 5.6407600641250610e-03</internalNodes>
          <leafValues>
            -6.7932480573654175e-01 7.9754793643951416e-01</leafValues></_></weakClassifiers></_>
    <!-- stage 3 -->
    <_>
      <maxWeakCount>3</maxWeakCount>
      <stageThreshold>-1.6501774787902832e+00</stageThreshold>
      <weakClassifiers>
        <_>
          <internalNodes>
            0 -1 13 -6.8502783775329590e-02</internalNodes>
          <leafValues>
            6.9620251655578613e-01 -9.0917873382568359e-01</leafValues></_>
        <_>
          <internalNodes>
            0 -1 11 3.9634011685848236e-02</internalNodes>
          <leafValues>
            -9.1650730371475220e-01 1.9475859403610229e-01</leafValues></_>
        <_>
          <internalNodes>
            0 -1 36 -1.4311556697066408e-05</internalNodes>
          <leafValues>
            3.3466780185699463e-01 -9.3575727939605713e-01</leafValues></_></weakClassifiers></_>
    <!-- stage 4 -->
    <_>
      <maxWeakCount>3</maxWeakCount>
      <stageThreshold>-1.3403024673461914e+00</stageThreshold>
      <weakClassifiers>
        <_>
          <internalNodes>
            0 -1 2 2.5124840438365936e-02</internalNodes>
          <leafValues>
            -9.1812866926193237e-01 6.3636362552642822e-01</leafValues></_>
        <_>
          <internalNodes>
            0 -1 26 6.3385888934135437e-02</internalNodes>
          <leafValues>
            -8.1036776304244995e-01 5.2978050708770752e-01</leafValues></_>
        <_>
          <internalNodes>
            0 -1 21 -2.8804005123674870e-03</internalNodes>
          <leafValues>
            3.8819387555122375e-01 -9.4273650646209717e-01</leafValues></_></weakClassifiers></_>
    <!-- stage 5 -->
    <_>
      <maxWeakCount>3</maxWeakCount>
      <stageThreshold>-1.3030982017517090e+00</stageThreshold>
      <weakClassifiers>
        <_>
          <internalNodes>
            0 -1 12 6.8851396441459656e-02</internalNodes>
          <leafValues>
            -8.9817482233047485e-01 6.7123287916183472e-01</leafValues></_>
        <_>
          <internalNodes>
            0 -1 5 1.2841655313968658e-01</internalNodes>
          <leafValues>
            -7.8259569406509399e-01 7.6237922906875610e-01</leafValues></_>
        <_>
          <internalNodes>
            0 -1 28 1.5118486771825701e-05</internalNodes>
          <leafValues>
            -9.6100425720214844e-01 3.7767234444618225e-01</leafValues></_></weakClassifiers></_>
    <!-- stage 6 -->
    <_>
      <maxWeakCount>3</maxWeakCount>
      <stageThreshold>-1.4340562820434570e+00</stageThreshold>
      <weakClassifiers>
        <_>
          <internalNodes>
            0 -1 10 -3.9880834519863129e-02</internalNodes>
          <leafValues>
            3.3980581164360046e-01 -9.1097921133041382e-01</leafValues></_>
        <_>
          <internalNodes>
            0 -1 30 5.7450607419013977e-02</internalNodes>
          <leafValues>
            -7.9623502492904663e-01 5.3311413526535034e-01</leafValues></_>
        <_>
          <internalNodes>
            0 -1 8 1.5261966836987995e-05</internalNodes>
          <leafValues>
            -1. 2.7315798401832581e-01</leafValues></_></weakClassifiers></_>
    <!-- stage 7 -->
    <_>
      <maxWeakCount>3</maxWeakCount>
      <stageThreshold>-1.1730922460556030e+00</stageThreshold>
      <weakClassifiers>
        <_>
          <internalNodes>
            0 -1 14 -3.0686862766742706e-02</internalNodes>
          <leafValues>
            6.3636362552642822e-01 -8.8549619913101196e-01</leafValues></_>
        <_>
          <internalNodes>
            0 -1 20 7.4772429652512074e-03</internalNodes>
          <leafValues>
            -6.7342251539230347e-01 6.7422568798065186e-01</leafValues></_>
        <_>
          <internalNodes>
            0 -1 18 -9.8981723189353943e-02</internalNodes>
          <leafValues>
            3.8582643866539001e-01 -1.</leafValues></_></weakClassifiers></_>
    <!-- stage 8 -->
    <_>
      <maxWeakCount>3</maxWeakCount>
      <stageThreshold>-1.5698658227920532e+00</stageThreshold>
      <weakClassifiers>
        <_>
          <internalNodes>
            0 -1 1 1.2465865910053253e-01</internalNodes>
          <leafValues>
            -9.1984361410140991e-01 6.0439562797546387e-01</leafValues></_>
        <_>
          <internalNodes>
            0 -1 27 7.6458067633211613e-03</internalNodes>
          <leafValues>
            -8.8596552610397339e-01 3.2462596893310547e-01</leafValues></_>
        <_>
          <internalNodes>
            0 -1 33 -7.1032661944627762e-03</internalNodes>
          <leafValues>
            -9.7464817762374878e-01 3.7559515237808228e-01</leafValues></_></weakClassifiers></_>
    <!-- stage 9 -->
    <_>
      <maxWeakCount>3</maxWeakCount>
      <stageThreshold>-1.5078005790710449e+00</stageThreshold>
      <weakClassifiers>
        <_>
          <internalNodes>
            0 -1 9 6.8555839359760284e-02</internalNodes>
          <leafValues>
            -8.9885497093200684e-01 8.4848487377166748e-01</leafValues></_>
        <_>
          <internalNodes>
            0 -1 31 -7.6429165899753571e-02</internalNodes>
          <leafValues>
            5.5331325531005859e-01 -9.3128257989883423e-01</leafValues></_>
        <_>
          <internalNodes>
            0 -1 4 -7.7416663989424706e-03</internalNodes>
          <leafValues>
            -9.8257070779800415e-01 3.2233694195747375e-01</leafValues></_></weakClassifiers></_>
    <!-- stage 10 -->
    <_>
      <maxWeakCount>3</maxWeakCount>
      <stageThreshold>-1.3108329772949219e+00</stageThreshold>
      <weakClassifiers>
        <_>
          <internalNodes>
            0 -1 15 1.7563218250870705e-02</internalNodes>
          <leafValues>
            -9.0657770633697510e-01 1.</leafValues></_>
        <_>
          <internalNodes>
            0 -1 29 -1.8651923537254333e-01</internalNodes>
          <leafValues>
            8.5694527626037598e-01 -8.5002756118774414e-01</leafValues></_>
        <_>
          <internalNodes>
            0 -1 32 -1.4192230992193799e-05</internalNodes>
          <leafValues>
            4.4577223062515259e-01 -9.8376226425170898e-01</leafValues></_></weakClassifiers></_>
    <!-- stage 11 -->
    <_>
      <maxWeakCount>3</maxWeakCount>
      <stageThreshold>-1.2962908744812012e+00</stageThreshold>
      <weakClassifiers>
        <_>
          <internalNodes>
            0 -1 3 -2.1071821451187134e-02</internalNodes>
          <leafValues>
            1. -9.6463656425476074e-01</leafValues></_>
        <_>
          <internalNodes>
            0 -1 6 -1.5118486771825701e-05</internalNodes>
          <leafValues>
            6.1428123712539673e-01 -9.6755290031433105e-01</leafValues></_>
        <_>
          <internalNodes>
            0 -1 35 -1.4415820260182954e-05</internalNodes>
          <leafValues>
            7.6649045944213867e-01 -9.4593554735183716e-01</leafValues></_></weakClassifiers></_></stages>
  <features>
    <_>
      <rects>
        <_>
          0 0 17 15 -1.</_>
        <_>
          0 5 17 5 3.</_></rects>
      <tilted>0</tilted></_>
    <_>
      <rects>
        <_>
          0 6 12 6 -1.</_>
        <_>
          4 6 4 6 3.</_></rects>
      <tilted>0</tilted></_>
    <_>
      <rects>
        <_>
          0 8 12 1 -1.</_>
        <_>
          4 8 4 1 3.</_></rects>
      <tilted>0</tilted></_>
    <_>
      <rects>
        <_>
          0 13 7 10 -1.</_>
        <_>
          0 18 7 5 2.</_></rects>
      <tilted>0</tilted></_>
    <_>
      <rects>
        <_>
          0 13 24 6 -1.</_>
        <_>
          0 16 24 3 2.</_></rects>
      <tilted>0</tilted></_>
    <_>
      <rects>
        <_>
          1 5 8 16 -1.</_>
        <_>
          5 5 4 16 2.</_></rects>
      <tilted>0</tilted></_>
    <_>
      <rects>
        <_>
          1 14 3 6 -1.</_>
        <_>
          1 17 3 3 2.</_></rects>
      <tilted>0</tilted></_>
    <_>
      <rects>
        <_>
          2 7 9 12 -1.</_>
        <_>
          5 7 3 12 3.</_></rects>
      <tilted>0</tilted></_>
    <_>
      <rects>
        <_>
          2 21 6 2 -1.</_>
        <_>
          5 21 3 2 2.</_></rects>
      <tilted>0</tilted></_>
    <_>
      <rects>
        <_>
          3 2 15 6 -1.</_>
        <_>
          3 4 15 2 3.</_></rects>
      <tilted>0</tilted></_>
    <_>
      <rects>
        <_>
          3 4 8 6 -1.</_>
        <_>
          3 4 4 3 2.</_>
        <_>
          7 7 4 3 2.</_></rects>
      <tilted>0</tilted></_>
    <_>
      <rects>
        <_>
          3 18 18 5 -1.</_>
        <_>
          9 18 6 5 3.</_></rects>
      <tilted>0</tilted></_>
    <_>
      <rects>
        <_>
          4 2 13 4 -1.</_>
        <_>
          4 4 13 2 2.</_></rects>
      <tilted>0</tilted></_>
    <_>
      <rects>
        <_>
          4 3 8 8 -1.</_>
        <_>
          4 3 4 4 2.</_>
        <_>
          8 7 4 4 2.</_></rects>
      <tilted>0</tilted></_>
    <_>
      <rects>
        <_>
          4 4 8 4 -1.</_>
        <_>
          4 4 4 2 2.</_>
        <_>
          8 6 4 2 2.</_></rects>
      <tilted>0</tilted></_>
    <_>
      <rects>
        <_>
          4 17 10 4 -1.</_>
        <_>
          4 17 5 2 2.</_>
        <_>
          9 19 5 2 2.</_></rects>
      <tilted>0</tilted></_>
    <_>
      <rects>
        <_>
          5 9 12 6 -1.</_>
        <_>
          9 9 4 6 3.</_></rects>
      <tilted>0</tilted></_>
    <_>
      <rects>
        <_>
          5 18 11 6 -1.</_>
        <_>
          5 21 11 3 2.</_></rects>
      <tilted>0</tilted></_>
    <_>
      <rects>
        <_>
          7 4 13 20 -1.</_>
        <_>
          7 14 13 10 2.</_></rects>
      <tilted>0</tilted></_>
    <_>
      <rects>
        <_>
          8 0 9 12 -1.</_>
        <_>
          8 4 9 4 3.</_></rects>
      <tilted>0</tilted></_>
    <_>
      <rects>
        <_>
          9 5 6 3 -1.</_>
        <_>
          9 6 6 1 3.</_></rects>
      <tilted>0</tilted></_>
    <_>
      <rects>
        <_>
          9 9 11 2 -1.</_>
        <_>
          9 10 11 1 2.</_></rects>
      <tilted>0</tilted></_>
    <_>
      <rects>
        <_>
          10 2 14 6 -1.</_>
        <_>
          17 2 7 6 2.</_></rects>
      <tilted>0</tilted></_>
    <_>
      <rects>
        <_>
          10 5 8 2 -1.</_>
        <_>
          10 5 4 1 2.</_>
        <_>
          14 6 4 1 2.</_></rects>
      <tilted>0</tilted></_>
    <_>
      <rects>
        <_>
          10 10 12 6 -1.</_>
        <_>
          14 10 4 6 3.</_></rects>
      <tilted>0</tilted></_>
    <_>
      <rects>
        <_>
          10 17 3 6 -1.</_>
        <_>
          10 19 3 2 3.</_></rects>
      <tilted>0</tilted></_>
    <_>
      <rects>
        <_>
          11 0 6 14 -1.</_>
        <_>
          11 0 3 7 2.</_>
        <_>
          14 7 3 7 2.</_></rects>
      <tilted>0</tilted></_>
    <_>
      <rects>
        <_>
          11 10 1 12 -1.</_>
        <_>
          11 16 1 6 2.</_></rects>
      <tilted>0</tilted></_>
    <_>
      <rects>
        <_>
          11 14 2 1 -1.</_>
        <_>
          12 14 1 1 2.</_></rects>
      <tilted>0</tilted></_>
    <_>
      <rects>
        <_>
          12 3 10 16 -1.</_>
        <_>
          17 3 5 16 2.</_></rects>
      <tilted>0</tilted></_>
    <_>
      <rects>
        <_>
          13 6 6 12 -1.</_>
        <_>
          15 6 2 12 3.</_></rects>
      <tilted>0</tilted></_>
    <_>
      <rects>
        <_>
          13 12 10 10 -1.</_>
        <_>
          18 12 5 10 2.</_></rects>
      <tilted>0</tilted></_>
    <_>
      <rects>
        <_>
          13 22 7 2 -1.</_>
        <_>
          13 23 7 1 2.</_></rects>
      <tilted>0</tilted></_>
    <_>
      <rects>
        <_>
          14 0 8 20 -1.</_>
        <_>
          14 10 8 10 2.</_></rects>
      <tilted>0</tilted></_>
    <_>
      <rects>
        <_>
          14 3 8 20 -1.</_>
        <_>
          18 3 4 20 2.</_></rects>
      <tilted>0</tilted></_>
    <_>
      <rects>
        <_>
          19 4 2 3 -1.</_>
        <_>
          19 5 2 1 3.</_></rects>
      <tilted>0</tilted></_>
    <_>
      <rects>
        <_>
          19 14 3 2 -1.</_>
        <_>
          19 15 3 1 2.</_></rects>
      <tilted>0</tilted></_></features></cascade>
</opencv_storage>
