<?xml version="1.0"?>
<opencv_storage>
<cascade>
  <stageType>BOOST</stageType>
  <featureType>HAAR</featureType>
  <height>24</height>
  <width>18</width>
  <stageParams>
    <boostType>GAB</boostType>
    <minHitRate>9.9500000476837158e-01</minHitRate>
    <maxFalseAlarm>5.0000000000000000e-01</maxFalseAlarm>
    <weightTrimRate>9.4999998807907104e-01</weightTrimRate>
    <maxDepth>1</maxDepth>
    <maxWeakCount>100</maxWeakCount></stageParams>
  <featureParams>
    <maxCatCount>0</maxCatCount>
    <featSize>1</featSize>
    <mode>BASIC</mode></featureParams>
  <stageNum>11</stageNum>
  <stages>
    <!-- stage 0 -->
    <_>
      <maxWeakCount>3</maxWeakCount>
      <stageThreshold>-1.2830746173858643e+00</stageThreshold>
      <weakClassifiers>
        <_>
          <internalNodes>
            0 -1 21 6.3743904232978821e-02</internalNodes>
          <leafValues>
            -9.7014927864074707e-01 8.1651377677917480e-01</leafValues></_>
        <_>
          <internalNodes>
            0 -1 3 1.8780192732810974e-01</internalNodes>
          <leafValues>
            -9.6385288238525391e-01 6.8231600522994995e-01</leafValues></_>
        <_>
          <internalNodes>
            0 -1 17 -5.1572456955909729e-02</internalNodes>
          <leafValues>
            6.5092748403549194e-01 -9.3384408950805664e-01</leafValues></_></weakClassifiers></_>
    <!-- stage 1 -->
    <_>
      <maxWeakCount>3</maxWeakCount>
      <stageThreshold>-1.3351920843124390e+00</stageThreshold>
      <weakClassifiers>
        <_>
          <internalNodes>
            0 -1 27 -1.8822506070137024e-01</internalNodes>
          <leafValues>
            6.9999998807907104e-01 -9.7585511207580566e-01</leafValues></_>
        <_>
          <internalNodes>
            0 -1 0 1.4286333322525024e-01</internalNodes>
          <leafValues>
            -8.8112354278564453e-01 9.1150277853012085e-01</leafValues></_>
        <_>
          <internalNodes>
            0 -1 23 -6.8817496299743652e-02</internalNodes>
          <leafValues>
            5.2178663015365601e-01 -9.8299902677536011e-01</leafValues></_></weakClassifiers></_>
    <!-- stage 2 -->
    <_>
      <maxWeakCount>3</maxWeakCount>
      <stageThreshold>-1.2579199075698853e+00</stageThreshold>
      <weakClassifiers>
        <_>
          <internalNodes>
            0 -1 25 1.1879494786262512e-01</internalNodes>
          <leafValues>
            -9.5049506425857544e-01 7.1153843402862549e-01</leafValues></_>
        <_>
          <internalNodes>
            0 -1 1 1.0306145250797272e-01</internalNodes>
          <leafValues>
            -8.9038002490997314e-01 6.3767457008361816e-01</leafValues></_>
        <_>
          <internalNodes>
            0 -1 20 -2.5180380791425705e-02</internalNodes>
          <leafValues>
            5.8295518159866333e-01 -8.9752662181854248e-01</leafValues></_></weakClassifiers></_>
    <!-- stage 3 -->
    <_>
      <maxWeakCount>3</maxWeakCount>
      <stageThreshold>-1.3428208827972412e+00</stageThreshold>
      <weakClassifiers>
        <_>
          <internalNodes>
            0 -1 10 -1.0343928635120392e-01</internalNodes>
          <leafValues>
            4.6551725268363953e-01 -9.4188374280929565e-01</leafValues></_>
        <_>
          <internalNodes>
            0 -1 14 -2.5431744754314423e-02</internalNodes>
          <leafValues>
            4.8981592059135437e-01 -8.4276247024536133e-01</leafValues></_>
        <_>
          <internalNodes>
            0 -1 31 -3.6170604289509356e-05</internalNodes>
          <leafValues>
            4.4182533025741577e-01 -9.9100458621978760e-01</leafValues></_></weakClassifiers></_>
    <!-- stage 4 -->
    <_>
      <maxWeakCount>3</maxWeakCount>
      <stageThreshold>-1.4683173894882202e+00</stageThreshold>
      <weakClassifiers>
        <_>
          <internalNodes>
            0 -1 6 -7.0588722825050354e-02</internalNodes>
          <leafValues>
            8.1333333253860474e-01 -9.1145330667495728e-01</leafValues></_>
        <_>
          <internalNodes>
            0 -1 15 1.6032618284225464e-01</internalNodes>
          <leafValues>
            -8.9007622003555298e-01 5.5977386236190796e-01</leafValues></_>
        <_>
          <internalNodes>
            0 -1 30 -3.5457164049148560e-03</internalNodes>
          <leafValues>
            -1. 3.3321216702461243e-01</leafValues></_></weakClassifiers></_>
    <!-- stage 5 -->
    <_>
      <maxWeakCount>3</maxWeakCount>
      <stageThreshold>-1.5428503751754761e+00</stageThreshold>
      <weakClassifiers>
        <_>
          <internalNodes>
            0 -1 22 2.8314631432294846e-02</internalNodes>
          <leafValues>
            -9.0047848224639893e-01 7.9710143804550171e-01</leafValues></_>
        <_>
          <internalNodes>
            0 -1 11 -6.4721927046775818e-02</internalNodes>
          <leafValues>
            3.3724376559257507e-01 -8.2773733139038086e-01</leafValues></_>
        <_>
          <internalNodes>
            0 -1 19 -4.2092591524124146e-02</internalNodes>
          <leafValues>
            3.9289599657058716e-01 -9.7961568832397461e-01</leafValues></_></weakClassifiers></_>
    <!-- stage 6 -->
    <_>
      <maxWeakCount>4</maxWeakCount>
      <stageThreshold>-2.1437828540802002e+00</stageThreshold>
      <weakClassifiers>
        <_>
          <internalNodes>
            0 -1 13 3.8917526602745056e-02</internalNodes>
          <leafValues>
            -9.1609758138656616e-01 5.9550559520721436e-01</leafValues></_>
        <_>
          <internalNodes>
            0 -1 24 6.7890086211264133e-03</internalNodes>
          <leafValues>
            -8.0015259981155396e-01 5.3441250324249268e-01</leafValues></_>
        <_>
          <internalNodes>
            0 -1 26 -1.2250896543264389e-01</internalNodes>
          <leafValues>
            5.6685775518417358e-01 -7.9983127117156982e-01</leafValues></_>
        <_>
          <internalNodes>
            0 -1 28 -3.8948608562350273e-05</internalNodes>
          <leafValues>
            3.7229850888252258e-01 -1.</leafValues></_></weakClassifiers></_>
    <!-- stage 7 -->
    <_>
      <maxWeakCount>3</maxWeakCount>
      <stageThreshold>-1.3534328937530518e+00</stageThreshold>
      <weakClassifiers>
        <_>
          <internalNodes>
            0 -1 18 3.3154305070638657e-02</internalNodes>
          <leafValues>
            -9.2149168252944946e-01 5.5789476633071899e-01</leafValues></_>
        <_>
          <internalNodes>
            0 -1 9 1.6163108870387077e-02</internalNodes>
          <leafValues>
            -7.8418111801147461e-01 5.2630823850631714e-01</leafValues></_>
        <_>
          <internalNodes>
            0 -1 29 -5.1218797452747822e-03</internalNodes>
          <leafValues>
            -1. 3.5223990678787231e-01</leafValues></_></weakClassifiers></_>
    <!-- stage 8 -->
    <_>
      <maxWeakCount>3</maxWeakCount>
      <stageThreshold>-1.2928462028503418e+00</stageThreshold>
      <weakClassifiers>
        <_>
          <internalNodes>
            0 -1 9 1.5764219686388969e-02</internalNodes>
          <leafValues>
            -9.3706983327865601e-01 6.9072163105010986e-01</leafValues></_>
        <_>
          <internalNodes>
            0 -1 8 6.2903784215450287e-02</internalNodes>
          <leafValues>
            -7.4655538797378540e-01 9.0506398677825928e-01</leafValues></_>
        <_>
          <internalNodes>
            0 -1 12 -1.9850549506372772e-05</internalNodes>
          <leafValues>
            3.9077895879745483e-01 -9.7930037975311279e-01</leafValues></_></weakClassifiers></_>
    <!-- stage 9 -->
    <_>
      <maxWeakCount>3</maxWeakCount>
      <stageThreshold>-1.0703650712966919e+00</stageThreshold>
      <weakClassifiers>
        <_>
          <internalNodes>
            0 -1 2 -4.2877994477748871e-02</internalNodes>
          <leafValues>
            1. -9.2864030599594116e-01</leafValues></_>
        <_>
          <internalNodes>
            0 -1 5 6.3690029084682465e-02</internalNodes>
          <leafValues>
            -7.9812395572662354e-01 7.9283148050308228e-01</leafValues></_>
        <_>
          <internalNodes>
            0 -1 7 -1.5273632016032934e-03</internalNodes>
          <leafValues>
            -9.3455630540847778e-01 6.6380029916763306e-01</leafValues></_></weakClassifiers></_>
    <!-- stage 10 -->
    <_>
      <maxWeakCount>2</maxWeakCount>
      <stageThreshold>3.9920159615576267e-03</stageThreshold>
      <weakClassifiers>
        <_>
          <internalNodes>
            0 -1 4 -3.5609467886388302e-04</internalNodes>
          <leafValues>
            1. -9.9600797891616821e-01</leafValues></_>
        <_>
          <internalNodes>
            0 -1 16 1.3505608076229692e-03</internalNodes>
          <leafValues>
            1. -9.9206346273422241e-01</leafValues></_></weakClassifiers></_></stages>
  <features>
    <_>
      <rects>
        <_>
          0 5 9 9 -1.</_>
        <_>
          3 5 3 9 3.</_></rects>
      <tilted>0</tilted></_>
    <_>
      <rects>
        <_>
          0 5 6 12 -1.</_>
        <_>
          3 5 3 12 2.</_></rects>
      <tilted>0</tilted></_>
    <_>
      <rects>
        <_>
          1 4 8 6 -1.</_>
        <_>
          1 4 4 3 2.</_>
        <_>
          5 7 4 3 2.</_></rects>
      <tilted>0</tilted></_>
    <_>
      <rects>
        <_>
          2 0 10 15 -1.</_>
        <_>
          2 5 10 5 3.</_></rects>
      <tilted>0</tilted></_>
    <_>
      <rects>
        <_>
          2 20 5 4 -1.</_>
        <_>
          2 22 5 2 2.</_></rects>
      <tilted>0</tilted></_>
    <_>
      <rects>
        <_>
          3 1 6 13 -1.</_>
        <_>
          5 1 2 13 3.</_></rects>
      <tilted>0</tilted></_>
    <_>
      <rects>
        <_>
          3 3 6 8 -1.</_>
        <_>
          3 3 3 4 2.</_>
        <_>
          6 7 3 4 2.</_></rects>
      <tilted>0</tilted></_>
    <_>
      <rects>
        <_>
          3 13 9 3 -1.</_>
        <_>
          3 14 9 1 3.</_></rects>
      <tilted>0</tilted></_>
    <_>
      <rects>
        <_>
          4 3 14 6 -1.</_>
        <_>
          4 5 14 2 3.</_></rects>
      <tilted>0</tilted></_>
    <_>
      <rects>
        <_>
          4 15 4 8 -1.</_>
        <_>
          4 15 2 4 2.</_>
        <_>
          6 19 2 4 2.</_></rects>
      <tilted>0</tilted></_>
    <_>
      <rects>
        <_>
          5 7 6 12 -1.</_>
        <_>
          7 7 2 12 3.</_></rects>
      <tilted>0</tilted></_>
    <_>
      <rects>
        <_>
          5 9 6 9 -1.</_>
        <_>
          7 9 2 9 3.</_></rects>
      <tilted>0</tilted></_>
    <_>
      <rects>
        <_>
          5 13 6 3 -1.</_>
        <_>
          5 14 6 1 3.</_></rects>
      <tilted>0</tilted></_>
    <_>
      <rects>
        <_>
          6 2 4 6 -1.</_>
        <_>
          6 4 4 2 3.</_></rects>
      <tilted>0</tilted></_>
    <_>
      <rects>
        <_>
          6 8 6 3 -1.</_>
        <_>
          8 8 2 3 3.</_></rects>
      <tilted>0</tilted></_>
    <_>
      <rects>
        <_>
          6 9 12 8 -1.</_>
        <_>
          10 9 4 8 3.</_></rects>
      <tilted>0</tilted></_>
    <_>
      <rects>
        <_>
          6 13 9 6 -1.</_>
        <_>
          6 15 9 2 3.</_></rects>
      <tilted>0</tilted></_>
    <_>
      <rects>
        <_>
          7 4 2 18 -1.</_>
        <_>
          7 10 2 6 3.</_></rects>
      <tilted>0</tilted></_>
    <_>
      <rects>
        <_>
          7 5 8 4 -1.</_>
        <_>
          7 5 4 2 2.</_>
        <_>
          11 7 4 2 2.</_></rects>
      <tilted>0</tilted></_>
    <_>
      <rects>
        <_>
          7 6 8 10 -1.</_>
        <_>
          7 11 8 5 2.</_></rects>
      <tilted>0</tilted></_>
    <_>
      <rects>
        <_>
          7 18 6 6 -1.</_>
        <_>
          7 21 6 3 2.</_></rects>
      <tilted>0</tilted></_>
    <_>
      <rects>
        <_>
          8 2 6 12 -1.</_>
        <_>
          8 2 3 6 2.</_>
        <_>
          11 8 3 6 2.</_></rects>
      <tilted>0</tilted></_>
    <_>
      <rects>
        <_>
          8 3 4 6 -1.</_>
        <_>
          8 3 2 3 2.</_>
        <_>
          10 6 2 3 2.</_></rects>
      <tilted>0</tilted></_>
    <_>
      <rects>
        <_>
          8 4 10 5 -1.</_>
        <_>
          13 4 5 5 2.</_></rects>
      <tilted>0</tilted></_>
    <_>
      <rects>
        <_>
          8 17 1 6 -1.</_>
        <_>
          8 19 1 2 3.</_></rects>
      <tilted>0</tilted></_>
    <_>
      <rects>
        <_>
          9 6 6 13 -1.</_>
        <_>
          11 6 2 13 3.</_></rects>
      <tilted>0</tilted></_>
    <_>
      <rects>
        <_>
          10 4 6 18 -1.</_>
        <_>
          13 4 3 18 2.</_></rects>
      <tilted>0</tilted></_>
    <_>
      <rects>
        <_>
          10 4 8 17 -1.</_>
        <_>
          14 4 4 17 2.</_></rects>
      <tilted>0</tilted></_>
    <_>
      <rects>
        <_>
          12 16 5 2 -1.</_>
        <_>
          12 17 5 1 2.</_></rects>
      <tilted>0</tilted></_>
    <_>
      <rects>
        <_>
          13 1 3 18 -1.</_>
        <_>
          13 10 3 9 2.</_></rects>
      <tilted>0</tilted></_>
    <_>
      <rects>
        <_>
          14 13 4 4 -1.</_>
        <_>
          14 15 4 2 2.</_></rects>
      <tilted>0</tilted></_>
    <_>
      <rects>
        <_>
          15 13 1 4 -1.</_>
        <_>
          15 15 1 2 2.</_></rects>
      <tilted>0</tilted></_></features></cascade>
</opencv_storage>
