<?xml version="1.0"?>
<opencv_storage>
<cascade>
  <stageType>BOOST</stageType>
  <featureType>HAAR</featureType>
  <height>24</height>
  <width>32</width>
  <stageParams>
    <boostType>GAB</boostType>
    <minHitRate>9.9500000476837158e-01</minHitRate>
    <maxFalseAlarm>5.0000000000000000e-01</maxFalseAlarm>
    <weightTrimRate>9.4999998807907104e-01</weightTrimRate>
    <maxDepth>1</maxDepth>
    <maxWeakCount>100</maxWeakCount></stageParams>
  <featureParams>
    <maxCatCount>0</maxCatCount>
    <featSize>1</featSize>
    <mode>BASIC</mode></featureParams>
  <stageNum>5</stageNum>
  <stages>
    <!-- stage 0 -->
    <_>
      <maxWeakCount>2</maxWeakCount>
      <stageThreshold>-3.8554224371910095e-01</stageThreshold>
      <weakClassifiers>
        <_>
          <internalNodes>
            0 -1 4 3.3936724066734314e-01</internalNodes>
          <leafValues>
            -9.9597990512847900e-01 8.2051283121109009e-01</leafValues></_>
        <_>
          <internalNodes>
            0 -1 9 -1.5640486776828766e-01</internalNodes>
          <leafValues>
            6.1043763160705566e-01 -9.9296510219573975e-01</leafValues></_></weakClassifiers></_>
    <!-- stage 1 -->
    <_>
      <maxWeakCount>2</maxWeakCount>
      <stageThreshold>-2.8802788257598877e-01</stageThreshold>
      <weakClassifiers>
        <_>
          <internalNodes>
            0 -1 10 7.4838384985923767e-02</internalNodes>
          <leafValues>
            -9.8601400852203369e-01 8.3333331346511841e-01</leafValues></_>
        <_>
          <internalNodes>
            0 -1 6 7.3497854173183441e-02</internalNodes>
          <leafValues>
            -9.9309659004211426e-01 6.9798612594604492e-01</leafValues></_></weakClassifiers></_>
    <!-- stage 2 -->
    <_>
      <maxWeakCount>3</maxWeakCount>
      <stageThreshold>-1.2830437421798706e+00</stageThreshold>
      <weakClassifiers>
        <_>
          <internalNodes>
            0 -1 1 2.5719732046127319e-01</internalNodes>
          <leafValues>
            -9.8395186662673950e-01 7.1052628755569458e-01</leafValues></_>
        <_>
          <internalNodes>
            0 -1 0 1.9401490688323975e-01</internalNodes>
          <leafValues>
            -9.8563021421432495e-01 3.8552623987197876e-01</leafValues></_>
        <_>
          <internalNodes>
            0 -1 8 3.2385405153036118e-02</internalNodes>
          <leafValues>
            -9.6002894639968872e-01 6.8653833866119385e-01</leafValues></_></weakClassifiers></_>
    <!-- stage 3 -->
    <_>
      <maxWeakCount>3</maxWeakCount>
      <stageThreshold>-1.3197795152664185e+00</stageThreshold>
      <weakClassifiers>
        <_>
          <internalNodes>
            0 -1 2 1.6498056054115295e-01</internalNodes>
          <leafValues>
            -9.6825397014617920e-01 7.5384616851806641e-01</leafValues></_>
        <_>
          <internalNodes>
            0 -1 5 7.4606055021286011e-01</internalNodes>
          <leafValues>
            -9.6292716264724731e-01 6.0543841123580933e-01</leafValues></_>
        <_>
          <internalNodes>
            0 -1 7 4.3200063519179821e-03</internalNodes>
          <leafValues>
            -9.0326207876205444e-01 6.1140161752700806e-01</leafValues></_></weakClassifiers></_>
    <!-- stage 4 -->
    <_>
      <maxWeakCount>2</maxWeakCount>
      <stageThreshold>5.9820539318025112e-03</stageThreshold>
      <weakClassifiers>
        <_>
          <internalNodes>
            0 -1 11 2.6638032868504524e-03</internalNodes>
          <leafValues>
            -9.9401795864105225e-01 1.</leafValues></_>
        <_>
          <internalNodes>
            0 -1 3 1.0737666860222816e-02</internalNodes>
          <leafValues>
            -9.8226600885391235e-01 1.</leafValues></_></weakClassifiers></_></stages>
  <features>
    <_>
      <rects>
        <_>
          0 3 18 12 -1.</_>
        <_>
          9 3 9 12 2.</_></rects>
      <tilted>0</tilted></_>
    <_>
      <rects>
        <_>
          0 3 20 13 -1.</_>
        <_>
          10 3 10 13 2.</_></rects>
      <tilted>0</tilted></_>
    <_>
      <rects>
        <_>
          1 3 30 4 -1.</_>
        <_>
          11 3 10 4 3.</_></rects>
      <tilted>0</tilted></_>
    <_>
      <rects>
        <_>
          1 7 12 1 -1.</_>
        <_>
          7 7 6 1 2.</_></rects>
      <tilted>0</tilted></_>
    <_>
      <rects>
        <_>
          1 14 30 8 -1.</_>
        <_>
          11 14 10 8 3.</_></rects>
      <tilted>0</tilted></_>
    <_>
      <rects>
        <_>
          2 3 30 20 -1.</_>
        <_>
          12 3 10 20 3.</_></rects>
      <tilted>0</tilted></_>
    <_>
      <rects>
        <_>
          5 2 6 15 -1.</_>
        <_>
          5 7 6 5 3.</_></rects>
      <tilted>0</tilted></_>
    <_>
      <rects>
        <_>
          7 7 1 6 -1.</_>
        <_>
          7 9 1 2 3.</_></rects>
      <tilted>0</tilted></_>
    <_>
      <rects>
        <_>
          10 18 17 6 -1.</_>
        <_>
          10 20 17 2 3.</_></rects>
      <tilted>0</tilted></_>
    <_>
      <rects>
        <_>
          19 4 10 19 -1.</_>
        <_>
          24 4 5 19 2.</_></rects>
      <tilted>0</tilted></_>
    <_>
      <rects>
        <_>
          21 2 7 15 -1.</_>
        <_>
          21 7 7 5 3.</_></rects>
      <tilted>0</tilted></_>
    <_>
      <rects>
        <_>
          23 7 8 2 -1.</_>
        <_>
          23 8 8 1 2.</_></rects>
      <tilted>0</tilted></_></features></cascade>
</opencv_storage>
